{"learner":{"attributes":{"scikit_learn":"{\"_estimator_type\": \"classifier\"}"},"feature_names":[],"feature_types":[],"gradient_booster":{"model":{"cats":{"enc":[],"feature_segments":[],"sorted_idx":[]},"gbtree_model_param":{"num_parallel_tree":"1","num_trees":"500"},"iteration_indptr":[0,1,2,3,4,5,6,7,8,9,10,11,12,13,14,15,16,17,18,19,20,21,22,23,24,25,26,27,28,29,30,31,32,33,34,35,36,37,38,39,40,41,42,43,44,45,46,47,48,49,50,51,52,53,54,55,56,57,58,59,60,61,62,63,64,65,66,67,68,69,70,71,72,73,74,75,76,77,78,79,80,81,82,83,84,85,86,87,88,89,90,91,92,93,94,95,96,97,98,99,100,101,102,103,104,105,106,107,108,109,110,111,112,113,114,115,116,117,118,119,120,121,122,123,124,125,126,127,128,129,130,131,132,133,134,135,136,137,138,139,140,141,142,143,144,145,146,147,148,149,150,151,152,153,154,155,156,157,158,159,160,161,162,163,164,165,166,167,168,169,170,171,172,173,174,175,176,177,178,179,180,181,182,183,184,185,186,187,188,189,190,191,192,193,194,195,196,197,198,199,200,201,202,203,204,205,206,207,208,209,210,211,212,213,214,215,216,217,218,219,220,221,222,223,224,225,226,227,228,229,230,231,232,233,234,235,236,237,238,239,240,241,242,243,244,245,246,247,248,249,250,251,252,253,254,255,256,257,258,259,260,261,262,263,264,265,266,267,268,269,270,271,272,273,274,275,276,277,278,279,280,281,282,283,284,285,286,287,288,289,290,291,292,293,294,295,296,297,298,299,300,301,302,303,304,305,306,307,308,309,310,311,312,313,314,315,316,317,318,319,320,321,322,323,324,325,326,327,328,329,330,331,332,333,334,335,336,337,338,339,340,341,342,343,344,345,346,347,348,349,350,351,352,353,354,355,356,357,358,359,360,361,362,363,364,365,366,367,368,369,370,371,372,373,374,375,376,377,378,379,380,381,382,383,384,385,386,387,388,389,390,391,392,393,394,395,396,397,398,399,400,401,402,403,404,405,406,407,408,409,410,411,412,413,414,415,416,417,418,419,420,421,422,423,424,425,426,427,428,429,430,431,432,433,434,435,436,437,438,439,440,441,442,443,444,445,446,447,448,449,450,451,452,453,454,455,456,457,458,459,460,461,462,463,464,465,466,467,468,469,470,471,472,473,474,475,476,477,478,479,480,481,482,483,484,485,486,487,488,489,490,491,492,493,494,495,496,497,498,499,500],"tree_info":[0,0,0,0,0,0,0,0,0,0,0,0,0,0,0,0,0,0,0,0,0,0,0,0,0,0,0,0,0,0,0,0,0,0,0,0,0,0,0,0,0,0,0,0,0,0,0,0,0,0,0,0,0,0,0,0,0,0,0,0,0,0,0,0,0,0,0,0,0,0,0,0,0,0,0,0,0,0,0,0,0,0,0,0,0,0,0,0,0,0,0,0,0,0,0,0,0,0,0,0,0,0,0,0,0,0,0,0,0,0,0,0,0,0,0,0,0,0,0,0,0,0,0,0,0,0,0,0,0,0,0,0,0,0,0,0,0,0,0,0,0,0,0,0,0,0,0,0,0,0,0,0,0,0,0,0,0,0,0,0,0,0,0,0,0,0,0,0,0,0,0,0,0,0,0,0,0,0,0,0,0,0,0,0,0,0,0,0,0,0,0,0,0,0,0,0,0,0,0,0,0,0,0,0,0,0,0,0,0,0,0,0,0,0,0,0,0,0,0,0,0,0,0,0,0,0,0,0,0,0,0,0,0,0,0,0,0,0,0,0,0,0,0,0,0,0,0,0,0,0,0,0,0,0,0,0,0,0,0,0,0,0,0,0,0,0,0,0,0,0,0,0,0,0,0,0,0,0,0,0,0,0,0,0,0,0,0,0,0,0,0,0,0,0,0,0,0,0,0,0,0,0,0,0,0,0,0,0,0,0,0,0,0,0,0,0,0,0,0,0,0,0,0,0,0,0,0,0,0,0,0,0,0,0,0,0,0,0,0,0,0,0,0,0,0,0,0,0,0,0,0,0,0,0,0,0,0,0,0,0,0,0,0,0,0,0,0,0,0,0,0,0,0,0,0,0,0,0,0,0,0,0,0,0,0,0,0,0,0,0,0,0,0,0,0,0,0,0,0,0,0,0,0,0,0,0,0,0,0,0,0,0,0,0,0,0,0,0,0,0,0,0,0,0,0,0,0,0,0,0,0,0,0,0,0,0,0,0,0,0,0,0,0,0,0,0,0,0,0,0,0,0,0,0,0,0,0,0,0,0,0,0,0,0,0,0,0,0,0,0,0,0,0,0,0,0,0,0,0,0,0,0,0,0,0,0,0,0,0,0,0,0,0,0,0,0,0,0,0,0],"trees":[{"base_weights":[9.90099E-3,1.6702127E0,-7.183099E-1,-0E0,3.7831325E-2,-1.4758065E0,3.1182796E-1,2E-2,-1.8E-2,-3.252174E-2,4.6153846E-3,-2.3606557E-2,1.9849624E-2],"categories":[],"categories_nodes":[],"categories_segments":[],"categories_sizes":[],"default_left":[0,0,0,0,0,0,0,0,0,0,0,0,0],"id":0,"left_children":[1,3,5,7,-1,9,11,-1,-1,-1,-1,-1,-1],"loss_changes":[1.8604756E2,1.7376236E1,8.4607086E1,8.55E0,0E0,1.7348999E1,4.9476273E1,0E0,0E0,0E0,0E0,0E0,0E0],"parents":[2147483647,0,0,1,1,2,2,3,3,5,5,6,6],"right_children":[2,4,6,8,-1,10,12,-1,-1,-1,-1,-1,-1],"split_conditions":[1.2498819E0,1.12287506E2,1.1741104E2,1.3251595E0,3.7831325E-2,1.662093E2,1.1986776E2,2E-2,-1.8E-2,-3.252174E-2,4.6153846E-3,-2.3606557E-2,1.9849624E-2],"split_indices":[143,101,173,406,0,363,386,0,0,0,0,0,0],"split_type":[0,0,0,0,0,0,0,0,0,0,0,0,0],"sum_hessian":[1.495E2,4.5E1,1.045E2,5.5E0,3.95E1,6E1,4.45E1,2.5E0,3E0,5.55E1,4.5E0,1.325E1,3.125E1],"tree_param":{"num_deleted":"0","num_feature":"408","num_nodes":"13","size_leaf_vector":"1"}},{"base_weights":[5.742128E-2,1.5359188E0,-5.785271E-1,-1.1402446E-2,1.7391908E0,-1.2103938E0,4.5955214E-1,-6.187618E-3,3.660119E-2,-2.949537E-2,2.6973004E-2,2.0118445E-2,-2.0120326E-2],"categories":[],"categories_nodes":[],"categories_segments":[],"categories_sizes":[],"default_left":[0,0,0,0,0,0,0,0,0,0,0,0,0],"id":1,"left_children":[1,3,5,-1,7,9,11,-1,-1,-1,-1,-1,-1],"loss_changes":[1.4044156E2,2.1826164E1,6.969205E1,0E0,9.661995E0,4.834601E1,3.444931E1,0E0,0E0,0E0,0E0,0E0,0E0],"parents":[2147483647,0,0,1,1,2,2,4,4,5,5,6,6],"right_children":[2,4,6,-1,8,10,12,-1,-1,-1,-1,-1,-1],"split_conditions":[1.2498819E0,1.4364122E2,9.782311E-1,-1.1402446E-2,1.0892877E2,1.7701599E2,9.1700864E-1,-6.187618E-3,3.660119E-2,-2.949537E-2,2.6973004E-2,2.0118445E-2,-2.0120326E-2],"split_indices":[143,110,128,0,340,27,81,0,0,0,0,0,0],"split_type":[0,0,0,0,0,0,0,0,0,0,0,0,0],"sum_hessian":[1.449673E2,4.29861E1,1.0198121E2,3.2495246E0,3.9736572E1,6.3487053E1,3.8494152E1,1.2497604E0,3.8486813E1,5.8487503E1,4.999549E0,2.874596E1,9.748192E0],"tree_param":{"num_deleted":"0","num_feature":"408","num_nodes":"13","size_leaf_vector":"1"}},{"base_weights":[-6.9669776E-2,1.4767764E0,-7.5553113E-1,-5.417751E-1,1.7324793E0,-1.4681245E0,2.9331926E-1,-2.2599932E-2,1.1768537E-2,-0E0,3.549841E-2,-3.125963E-2,6.9572693E-3,-2.4613082E-2,1.7589888E-2],"categories":[],"categories_nodes":[],"categories_segments":[],"categories_sizes":[],"default_left":[0,0,0,0,1,0,0,0,0,0,0,0,0,0,0],"id":2,"left_children":[1,3,5,7,9,11,13,-1,-1,-1,-1,-1,-1,-1,-1],"loss_changes":[1.5978656E2,2.631723E1,7.969357E1,5.9204407E0,2.272873E0,1.2539352E1,4.105834E1,0E0,0E0,0E0,0E0,0E0,0E0,0E0,0E0],"parents":[2147483647,0,0,1,1,2,2,3,3,4,4,5,5,6,6],"right_children":[2,4,6,8,10,12,14,-1,-1,-1,-1,-1,-1,-1,-1],"split_conditions":[1.2498819E0,7.538986E1,1.1741104E2,1.0972594E2,1.4402862E-1,8.9225185E-1,6.922067E-1,-2.2599932E-2,1.1768537E-2,-0E0,3.549841E-2,-3.125963E-2,6.9572693E-3,-2.4613082E-2,1.7589888E-2],"split_indices":[143,271,173,5,272,201,392,0,0,0,0,0,0,0,0],"split_type":[0,0,0,0,0,0,0,0,0,0,0,0,0,0,0],"sum_hessian":[1.468861E2,4.4197166E1,1.0268893E2,4.497826E0,3.969934E1,6.0953842E1,4.173508E1,3.24941E0,1.2484161E0,1.2488866E0,3.8450455E1,5.8454487E1,2.4993553E0,1.074574E1,3.098934E1],"tree_param":{"num_deleted":"0","num_feature":"408","num_nodes":"15","size_leaf_vector":"1"}},{"base_weights":[3.4489747E-2,-6.289129E-1,1.3508271E0,-1.1174502E0,8.7546813E-1,-1.5119827E-2,1.5328181E0,2.4662105E-2,-2.584041E-2,-2.2139382E-2,2.8336715E-2,3.250831E-2,-1.2149455E-2],"categories":[],"categories_nodes":[],"categories_segments":[],"categories_sizes":[],"default_left":[0,0,0,0,0,0,0,0,0,0,0,0,0],"id":3,"left_children":[1,3,5,7,9,-1,11,-1,-1,-1,-1,-1,-1],"loss_changes":[1.3501054E2,7.7292725E1,2.2607468E1,3.5379265E1,3.1150625E1,0E0,1.2126846E1,0E0,0E0,0E0,0E0,0E0,0E0],"parents":[2147483647,0,0,1,1,2,2,3,3,4,4,6,6],"right_children":[2,4,6,8,10,-1,12,-1,-1,-1,-1,-1,-1],"split_conditions":[1.2239107E2,1.7075179E2,7.08994E1,6.0354357E0,7.112222E1,-1.5119827E-2,8.917426E-1,2.4662105E-2,-2.584041E-2,-2.2139382E-2,2.8336715E-2,3.250831E-2,-1.2149455E-2],"split_indices":[161,99,30,375,91,0,57,0,0,0,0,0,0],"split_type":[0,0,0,0,0,0,0,0,0,0,0,0,0],"sum_hessian":[1.5024586E2,1.00341E2,4.9904865E1,7.6382935E1,2.3958065E1,3.2480774E0,4.6656788E1,4.24419E0,7.213875E1,4.492788E0,1.9465279E1,4.5407036E1,1.2497492E0],"tree_param":{"num_deleted":"0","num_feature":"408","num_nodes":"13","size_leaf_vector":"1"}},{"base_weights":[9.7690456E-2,-9.622527E-1,1.0456E0,2.6933985E-2,-1.3442307E0,1.3044118E0,-7.324964E-1,-2.9538823E-2,1.66262E-2,-1.0051211E-2,2.9631846E-2,-2.6880851E-2,1.1968763E-2],"categories":[],"categories_nodes":[],"categories_segments":[],"categories_sizes":[],"default_left":[0,0,0,0,0,0,0,0,0,0,0,0,0],"id":4,"left_children":[1,3,5,-1,7,9,11,-1,-1,-1,-1,-1,-1],"loss_changes":[1.5636412E2,6.8267204E1,4.006344E1,0E0,2.1279808E1,2.5284355E1,1.1333828E1,0E0,0E0,0E0,0E0,0E0,0E0],"parents":[2147483647,0,0,1,1,2,2,4,4,5,5,6,6],"right_children":[2,4,6,-1,8,10,12,-1,-1,-1,-1,-1,-1],"split_conditions":[1.1717527E2,1.2091395E0,7.700866E-1,2.6933985E-2,1.7629845E2,1.7250565E2,1.23898796E2,-2.9538823E-2,1.66262E-2,-1.0051211E-2,2.9631846E-2,-2.6880851E-2,1.1968763E-2],"split_indices":[173,311,57,0,3,398,148,0,0,0,0,0,0],"split_type":[0,0,0,0,0,0,0,0,0,0,0,0,0],"sum_hessian":[1.5158368E2,7.129952E1,8.028416E1,9.218153E0,6.2081367E1,7.079374E1,9.490419E0,5.9333984E1,2.747386E0,5.7417507E0,6.505199E1,6.746482E0,2.743938E0],"tree_param":{"num_deleted":"0","num_feature":"408","num_nodes":"13","size_leaf_vector":"1"}},{"base_weights":[2.0655068E-2,1.4382179E0,-6.2437683E-1,-4.3080062E-1,1.6692618E0,-1.1897885E0,4.2227095E-1,-2.1848552E-2,1.3309542E-2,-0E0,3.417723E-2,-2.700494E-2,1.7937565E-2,-1.541059E-2,2.1719968E-2],"categories":[],"categories_nodes":[],"categories_segments":[],"categories_sizes":[],"default_left":[0,0,0,0,0,0,0,0,0,0,0,0,0,0,0],"id":5,"left_children":[1,3,5,7,9,11,13,-1,-1,-1,-1,-1,-1,-1,-1],"loss_changes":[1.428851E2,2.3200974E1,6.464662E1,6.5550213E0,2.278984E0,2.6165276E1,3.24363E1,0E0,0E0,0E0,0E0,0E0,0E0,0E0,0E0],"parents":[2147483647,0,0,1,1,2,2,3,3,4,4,5,5,6,6],"right_children":[2,4,6,8,10,12,14,-1,-1,-1,-1,-1,-1,-1,-1],"split_conditions":[1.2439028E0,7.538986E1,9.777949E-1,1.1119979E2,1.19666756E2,1.7598947E2,1.551826E2,-2.1848552E-2,1.3309542E-2,-0E0,3.417723E-2,-2.700494E-2,1.7937565E-2,-1.541059E-2,2.1719968E-2],"split_indices":[143,271,128,53,14,87,265,0,0,0,0,0,0,0,0],"split_type":[0,0,0,0,0,0,0,0,0,0,0,0,0,0,0],"sum_hessian":[1.5185641E2,4.6963108E1,1.0489331E2,4.738444E0,4.2224667E1,6.823575E1,3.6657566E1,3.2438338E0,1.4946101E0,1.245475E0,4.097919E1,6.4241234E1,3.994514E0,1.2721074E1,2.3936493E1],"tree_param":{"num_deleted":"0","num_feature":"408","num_nodes":"15","size_leaf_vector":"1"}},{"base_weights":[-4.0022273E-2,1.4766335E0,-7.1094006E-1,-3.0634326E-1,3.3599794E-2,-1.3775909E0,3.3039767E-1,-1.9896673E-2,1.3209568E-2,-2.9880714E-2,1.5168898E-2,1.959974E-2,-1.8902792E-2],"categories":[],"categories_nodes":[],"categories_segments":[],"categories_sizes":[],"default_left":[0,0,0,0,0,0,0,0,0,0,0,0,0],"id":6,"left_children":[1,3,5,7,-1,9,11,-1,-1,-1,-1,-1,-1],"loss_changes":[1.557386E2,1.870092E1,7.538159E1,5.6320505E0,0E0,1.8956741E1,3.7413166E1,0E0,0E0,0E0,0E0,0E0,0E0],"parents":[2147483647,0,0,1,1,2,2,3,3,5,5,6,6],"right_children":[2,4,6,8,-1,10,12,-1,-1,-1,-1,-1,-1],"split_conditions":[1.2439028E0,7.538986E1,1.1790165E2,1.09830734E2,3.3599794E-2,1.7629845E2,1.6786066E1,-1.9896673E-2,1.3209568E-2,-2.9880714E-2,1.5168898E-2,1.959974E-2,-1.8902792E-2],"split_indices":[143,271,173,41,0,3,374,0,0,0,0,0,0],"split_type":[0,0,0,0,0,0,0,0,0,0,0,0,0],"sum_hessian":[1.4936517E2,4.484435E1,1.0452082E2,4.2356434E0,4.0608707E1,6.3623943E1,4.0896877E1,2.742134E0,1.4935093E0,6.112684E1,2.4971023E0,2.7663942E1,1.3232933E1],"tree_param":{"num_deleted":"0","num_feature":"408","num_nodes":"13","size_leaf_vector":"1"}},{"base_weights":[1.2603682E-2,-9.835134E-1,8.929737E-1,1.0988035E0,-1.3219645E0,1.8432591E-2,1.3928913E0,-1.1956739E-5,2.738658E-2,-3.0540418E-2,9.853306E-3,-1.6180746E-2,1.9677864E-2,-1.0028764E-2,3.088568E-2],"categories":[],"categories_nodes":[],"categories_segments":[],"categories_sizes":[],"default_left":[0,0,0,0,0,0,0,0,0,0,0,0,0,0,0],"id":7,"left_children":[1,3,5,7,9,11,13,-1,-1,-1,-1,-1,-1,-1,-1],"loss_changes":[1.3113477E2,5.229747E1,3.4069393E1,3.8570557E0,2.4817978E1,2.6735666E1,1.6493927E1,0E0,0E0,0E0,0E0,0E0,0E0,0E0,0E0],"parents":[2147483647,0,0,1,1,2,2,3,3,4,4,5,5,6,6],"right_children":[2,4,6,8,10,12,14,-1,-1,-1,-1,-1,-1,-1,-1],"split_conditions":[1.1716115E2,1.2619553E0,1.6456541E2,7.9897385E1,1.662093E2,1.2202789E2,7.382608E1,-1.1956739E-5,2.738658E-2,-3.0540418E-2,9.853306E-3,-1.6180746E-2,1.9677864E-2,-1.0028764E-2,3.088568E-2],"split_indices":[173,323,122,187,363,16,186,0,0,0,0,0,0,0,0],"split_type":[0,0,0,0,0,0,0,0,0,0,0,0,0,0,0],"sum_hessian":[1.4558342E2,6.792532E1,7.76581E1,8.661999E0,5.926332E1,2.9363815E1,4.8294285E1,1.7396163E0,6.9223824E0,5.377875E1,5.4845705E0,1.5707499E1,1.3656316E1,2.9873614E0,4.5306923E1],"tree_param":{"num_deleted":"0","num_feature":"408","num_nodes":"15","size_leaf_vector":"1"}},{"base_weights":[-1.082712E-2,1.3793125E0,-6.3428175E-1,-4.6161315E-1,3.264232E-2,-1.0198467E0,5.919825E-1,-2.1963114E-2,1.31855775E-2,-2.6687272E-2,5.5605667E-3,-1.4268807E-2,2.6499078E-2],"categories":[],"categories_nodes":[],"categories_segments":[],"categories_sizes":[],"default_left":[0,0,0,0,0,0,0,0,0,0,0,0,0],"id":8,"left_children":[1,3,5,7,-1,9,11,-1,-1,-1,-1,-1,-1],"loss_changes":[1.3135786E2,2.388034E1,5.1140007E1,6.6426783E0,0E0,3.4353844E1,2.717911E1,0E0,0E0,0E0,0E0,0E0,0E0],"parents":[2147483647,0,0,1,1,2,2,3,3,5,5,6,6],"right_children":[2,4,6,8,-1,10,12,-1,-1,-1,-1,-1,-1],"split_conditions":[1.2526484E0,7.538986E1,1.6275652E2,1.1723327E2,3.264232E-2,1.24100464E2,8.5117215E-1,-2.1963114E-2,1.31855775E-2,-2.6687272E-2,5.5605667E-3,-1.4268807E-2,2.6499078E-2],"split_indices":[143,271,363,113,0,16,164,0,0,0,0,0,0],"split_type":[0,0,0,0,0,0,0,0,0,0,0,0,0],"sum_hessian":[1.479738E2,4.481699E1,1.0315681E2,4.9730754E0,3.9843914E1,7.904704E1,2.410976E1,3.482208E0,1.4908673E0,6.3892784E1,1.5154262E1,8.443326E0,1.5666434E1],"tree_param":{"num_deleted":"0","num_feature":"408","num_nodes":"13","size_leaf_vector":"1"}},{"base_weights":[6.565034E-2,1.3793147E0,-5.692079E-1,-2.6125732E-1,3.2716136E-2,-1.0659585E0,4.134666E-1,1.7633466E-2,-2.2969207E-2,-2.516416E-2,2.1990351E-2,1.878455E-2,-1.6291566E-2],"categories":[],"categories_nodes":[],"categories_segments":[],"categories_sizes":[],"default_left":[0,0,0,0,0,0,0,0,0,0,0,0,0],"id":9,"left_children":[1,3,5,7,-1,9,11,-1,-1,-1,-1,-1,-1],"loss_changes":[1.2733501E2,2.2503922E1,5.1241512E1,1.0469617E1,0E0,3.1562897E1,2.4525665E1,0E0,0E0,0E0,0E0,0E0,0E0],"parents":[2147483647,0,0,1,1,2,2,3,3,5,5,6,6],"right_children":[2,4,6,8,-1,10,12,-1,-1,-1,-1,-1,-1],"split_conditions":[1.2439028E0,1.1157424E2,9.726274E-1,1.0636956E2,3.2716136E-2,1.7701599E2,9.1422856E-1,1.7633466E-2,-2.2969207E-2,-2.516416E-2,2.1990351E-2,1.878455E-2,-1.6291566E-2],"split_indices":[143,101,140,96,0,27,81,0,0,0,0,0,0],"split_type":[0,0,0,0,0,0,0,0,0,0,0,0,0],"sum_hessian":[1.4831311E2,4.7815144E1,1.0049797E2,6.1962476E0,4.1618896E1,6.697887E1,3.35191E1,2.467024E0,3.7292235E0,6.2499077E1,4.4797907E0,2.4085102E1,9.433996E0],"tree_param":{"num_deleted":"0","num_feature":"408","num_nodes":"13","size_leaf_vector":"1"}},{"base_weights":[5.781731E-2,-9.719018E-1,8.992148E-1,1.0407639E0,-1.2818847E0,-9.9964845E-1,1.127683E0,-4.023343E-4,2.4888959E-2,7.880703E-3,-2.8497588E-2,7.8083747E-3,-2.7672686E-2,2.7726196E-2,-1.201464E-2],"categories":[],"categories_nodes":[],"categories_segments":[],"categories_sizes":[],"default_left":[0,0,0,0,0,0,0,0,0,0,0,0,0,0,0],"id":10,"left_children":[1,3,5,7,9,11,13,-1,-1,-1,-1,-1,-1,-1,-1],"loss_changes":[1.3698029E2,4.7023094E1,4.0159958E1,2.898923E0,1.662819E1,7.017659E0,3.738742E1,0E0,0E0,0E0,0E0,0E0,0E0,0E0,0E0],"parents":[2147483647,0,0,1,1,2,2,3,3,4,4,5,5,6,6],"right_children":[2,4,6,8,10,12,14,-1,-1,-1,-1,-1,-1,-1,-1],"split_conditions":[1.1704506E2,1.2091395E0,1.25134575E2,4.2954198E-1,6.601901E1,1.4012123E2,7.8553665E-1,-4.023343E-4,2.4888959E-2,7.880703E-3,-2.8497588E-2,7.8083747E-3,-2.7672686E-2,2.7726196E-2,-1.201464E-2],"split_indices":[173,311,206,189,270,181,57,0,0,0,0,0,0,0,0],"split_type":[0,0,0,0,0,0,0,0,0,0,0,0,0,0,0],"sum_hessian":[1.5412679E2,6.890051E1,8.522628E1,8.350992E0,6.054952E1,8.192957E0,7.7033325E1,1.2400311E0,7.1109614E0,4.209203E0,5.6340313E1,1.4842365E0,6.7087207E0,6.760289E1,9.430435E0],"tree_param":{"num_deleted":"0","num_feature":"408","num_nodes":"15","size_leaf_vector":"1"}},{"base_weights":[-1.1936498E-2,1.3005414E0,-5.560787E-1,-2.1949464E-1,3.2047156E-2,-1.0809239E0,3.777273E-1,-1.7673122E-2,1.3774979E-2,-2.5936361E-2,2.2519354E-2,1.8821359E-2,-2.1315234E-2],"categories":[],"categories_nodes":[],"categories_segments":[],"categories_sizes":[],"default_left":[0,0,0,0,0,0,0,0,0,0,0,0,0],"id":11,"left_children":[1,3,5,7,-1,9,11,-1,-1,-1,-1,-1,-1],"loss_changes":[1.0594237E2,2.1289688E1,5.2860844E1,6.5438313E0,0E0,3.5587135E1,3.373069E1,0E0,0E0,0E0,0E0,0E0,0E0],"parents":[2147483647,0,0,1,1,2,2,3,3,5,5,6,6],"right_children":[2,4,6,8,-1,10,12,-1,-1,-1,-1,-1,-1],"split_conditions":[1.2223803E0,1.12287506E2,9.782311E-1,8.0090454E1,3.2047156E-2,1.7701599E2,9.1700864E-1,-1.7673122E-2,1.3774979E-2,-2.5936361E-2,2.2519354E-2,1.8821359E-2,-2.1315234E-2],"split_indices":[191,101,128,18,0,27,81,0,0,0,0,0,0],"split_type":[0,0,0,0,0,0,0,0,0,0,0,0,0],"sum_hessian":[1.4483833E2,4.136541E1,1.0347293E2,6.66871E0,3.4696697E1,6.6382835E1,3.7090096E1,4.2012E0,2.4675102E0,6.1425102E1,4.9577312E0,2.7428331E1,9.661765E0],"tree_param":{"num_deleted":"0","num_feature":"408","num_nodes":"13","size_leaf_vector":"1"}},{"base_weights":[-5.9636496E-2,-9.230728E-1,8.873718E-1,-1.2474247E0,4.9485302E-1,1.2276336E0,-8.014117E-1,1.6961591E-2,-2.7257837E-2,-1.1351307E-2,2.5597643E-2,-5.005187E-3,2.9335044E-2,1.2156284E-2,-2.4879476E-2],"categories":[],"categories_nodes":[],"categories_segments":[],"categories_sizes":[],"default_left":[0,0,0,0,0,0,0,0,0,0,0,0,0,0,0],"id":12,"left_children":[1,3,5,7,9,11,13,-1,-1,-1,-1,-1,-1,-1,-1],"loss_changes":[1.24153885E2,3.822856E1,4.366405E1,1.8454468E1,1.5126287E1,2.294226E1,9.981544E0,0E0,0E0,0E0,0E0,0E0,0E0,0E0,0E0],"parents":[2147483647,0,0,1,1,2,2,3,3,4,4,5,5,6,6],"right_children":[2,4,6,8,10,12,14,-1,-1,-1,-1,-1,-1,-1,-1],"split_conditions":[1.17837555E2,1.7208351E2,9.1422856E-1,8.862339E1,1.6376405E2,1.5338103E2,1.4471312E2,1.6961591E-2,-2.7257837E-2,-1.1351307E-2,2.5597643E-2,-5.005187E-3,2.9335044E-2,1.2156284E-2,-2.4879476E-2],"split_indices":[365,134,81,48,99,111,181,0,0,0,0,0,0,0,0],"split_type":[0,0,0,0,0,0,0,0,0,0,0,0,0,0,0],"sum_hessian":[1.478112E2,7.7619774E1,7.019143E1,6.365236E1,1.3967417E1,5.912161E1,1.1069818E1,2.4353719E0,6.1216988E1,5.899901E0,8.067515E0,7.9293585E0,5.119225E1,2.1971078E0,8.87271E0],"tree_param":{"num_deleted":"0","num_feature":"408","num_nodes":"15","size_leaf_vector":"1"}},{"base_weights":[-2.7285893E-2,-9.812865E-1,7.866374E-1,8.3986735E-1,-1.2936633E0,1.0996362E0,-8.5531515E-1,-1.2389696E-2,2.4949985E-2,1.0396107E-2,-2.9191755E-2,3.1642946E-3,2.9509703E-2,-2.701321E-2,7.2938614E-3],"categories":[],"categories_nodes":[],"categories_segments":[],"categories_sizes":[],"default_left":[0,0,0,0,0,0,0,0,0,0,0,0,0,0,0],"id":13,"left_children":[1,3,5,7,9,11,13,-1,-1,-1,-1,-1,-1,-1,-1],"loss_changes":[1.15133095E2,4.1347588E1,4.2962563E1,8.40461E0,1.9879005E1,2.2801277E1,9.714718E0,0E0,0E0,0E0,0E0,0E0,0E0,0E0,0E0],"parents":[2147483647,0,0,1,1,2,2,3,3,4,4,5,5,6,6],"right_children":[2,4,6,8,10,12,14,-1,-1,-1,-1,-1,-1,-1,-1],"split_conditions":[1.1717527E2,1.2613946E2,7.700866E-1,8.0032555E1,2.1383753E-2,7.4378496E-1,1.1132085E0,-1.2389696E-2,2.4949985E-2,1.0396107E-2,-2.9191755E-2,3.1642946E-3,2.9509703E-2,-2.701321E-2,7.2938614E-3],"split_indices":[173,337,57,115,383,224,128,0,0,0,0,0,0,0,0],"split_type":[0,0,0,0,0,0,0,0,0,0,0,0,0,0,0],"sum_hessian":[1.4416145E2,6.6463066E1,7.7698395E1,9.002229E0,5.7460835E1,6.6069016E1,1.1629377E1,1.4707623E0,7.5314665E0,4.2065444E0,5.325429E1,2.0041521E1,4.6027493E1,8.4102955E0,3.219082E0],"tree_param":{"num_deleted":"0","num_feature":"408","num_nodes":"15","size_leaf_vector":"1"}},{"base_weights":[3.0047083E-3,1.3211439E0,-5.516499E-1,-1.1555654E-2,1.4854189E0,-1.1998234E0,3.2937583E-1,1.2843872E-3,3.0813254E-2,5.9238044E-3,-2.7177515E-2,-1.8216336E-2,1.8495088E-2],"categories":[],"categories_nodes":[],"categories_segments":[],"categories_sizes":[],"default_left":[0,0,0,0,0,0,0,0,0,0,0,0,0],"id":14,"left_children":[1,3,5,-1,7,9,11,-1,-1,-1,-1,-1,-1],"loss_changes":[1.0835751E2,1.5897202E1,6.043581E1,0E0,2.2424622E0,1.5730637E1,3.505965E1,0E0,0E0,0E0,0E0,0E0,0E0],"parents":[2147483647,0,0,1,1,2,2,4,4,5,5,6,6],"right_children":[2,4,6,-1,8,10,12,-1,-1,-1,-1,-1,-1],"split_conditions":[1.2526484E0,1.4364122E2,1.1761993E2,-1.1555654E-2,6.753284E1,1.0347054E2,8.043963E-1,1.2843872E-3,3.0813254E-2,5.9238044E-3,-2.7177515E-2,-1.8216336E-2,1.8495088E-2],"split_indices":[143,110,173,0,127,53,164,0,0,0,0,0,0],"split_type":[0,0,0,0,0,0,0,0,0,0,0,0,0],"sum_hessian":[1.4368921E2,4.200404E1,1.0168517E2,2.701238E0,3.9302803E1,5.8494446E1,4.3190727E1,1.9710636E0,3.733174E1,5.1535134E0,5.334093E1,1.3393084E1,2.9797644E1],"tree_param":{"num_deleted":"0","num_feature":"408","num_nodes":"13","size_leaf_vector":"1"}},{"base_weights":[-4.4126E-3,1.2755327E0,-5.7306015E-1,-4.68958E-1,1.4649788E0,-1.1992425E0,9.715067E-2,-1.7753605E-2,4.9291113E-3,-0E0,3.045693E-2,9.64103E-3,-2.6897024E-2,-2.2328123E-2,1.4284131E-2],"categories":[],"categories_nodes":[],"categories_segments":[],"categories_sizes":[],"default_left":[0,0,0,0,0,0,0,0,0,0,0,0,0,0,0],"id":15,"left_children":[1,3,5,7,9,11,13,-1,-1,-1,-1,-1,-1,-1,-1],"loss_changes":[1.07249725E2,1.6812622E1,4.3851063E1,2.4611514E0,3.1898346E0,1.484697E1,3.960791E1,0E0,0E0,0E0,0E0,0E0,0E0,0E0,0E0],"parents":[2147483647,0,0,1,1,2,2,3,3,4,4,5,5,6,6],"right_children":[2,4,6,8,10,12,14,-1,-1,-1,-1,-1,-1,-1,-1],"split_conditions":[1.2439028E0,1.4364122E2,1.1618663E2,9.585601E1,9.722658E1,1.19922935E2,1.1963512E2,-1.7753605E-2,4.9291113E-3,-0E0,3.045693E-2,9.64103E-3,-2.6897024E-2,-2.2328123E-2,1.4284131E-2],"split_indices":[143,110,5,319,386,337,386,0,0,0,0,0,0,0,0],"split_type":[0,0,0,0,0,0,0,0,0,0,0,0,0,0,0],"sum_hessian":[1.4382788E2,4.3207783E1,1.00620094E2,3.6849833E0,3.95228E1,5.1588223E1,4.903187E1,2.461569E0,1.2234141E0,1.7202659E0,3.7802536E1,3.469706E0,4.8118515E1,1.5708788E1,3.3323086E1],"tree_param":{"num_deleted":"0","num_feature":"408","num_nodes":"15","size_leaf_vector":"1"}},{"base_weights":[-3.214418E-2,1.2438663E0,-5.921891E-1,-1.2252652E-2,1.4209442E0,-9.163871E-1,7.231225E-1,-0E0,3.0062268E-2,-2.7152522E-2,3.17987E-3,-1.9693008E-2,2.8036319E-2],"categories":[],"categories_nodes":[],"categories_segments":[],"categories_sizes":[],"default_left":[0,0,0,0,0,0,0,0,0,0,0,0,0],"id":16,"left_children":[1,3,5,-1,7,9,11,-1,-1,-1,-1,-1,-1],"loss_changes":[1.02201675E2,1.6447655E1,4.402272E1,0E0,4.8261642E0,3.9624542E1,2.6808386E1,0E0,0E0,0E0,0E0,0E0,0E0],"parents":[2147483647,0,0,1,1,2,2,4,4,5,5,6,6],"right_children":[2,4,6,-1,8,10,12,-1,-1,-1,-1,-1,-1],"split_conditions":[1.2439028E0,1.1010431E2,1.7403105E2,-1.2252652E-2,1.8017322E-1,1.1989279E2,2.4740385E-1,-0E0,3.0062268E-2,-2.7152522E-2,3.17987E-3,-1.9693008E-2,2.8036319E-2],"split_indices":[143,364,27,0,236,137,213,0,0,0,0,0,0],"split_type":[0,0,0,0,0,0,0,0,0,0,0,0,0],"sum_hessian":[1.3940923E2,4.1506256E1,9.790297E1,2.940007E0,3.856625E1,7.933516E1,1.8567808E1,2.1778793E0,3.638837E1,5.62112E1,2.3123962E1,4.8146234E0,1.3753185E1],"tree_param":{"num_deleted":"0","num_feature":"408","num_nodes":"13","size_leaf_vector":"1"}},{"base_weights":[-6.803232E-2,1.1867914E0,-5.5735475E-1,-3.6361414E-1,2.9479478E-2,-1.2097287E0,4.0265583E-2,1.4689246E-2,-2.168733E-2,-2.787065E-2,7.937313E-3,1.8174212E-2,-1.6566338E-2],"categories":[],"categories_nodes":[],"categories_segments":[],"categories_sizes":[],"default_left":[0,0,0,0,0,0,0,0,0,0,0,0,0],"id":17,"left_children":[1,3,5,7,-1,9,11,-1,-1,-1,-1,-1,-1],"loss_changes":[8.83154E1,1.9545864E1,4.1208057E1,7.7998753E0,0E0,1.6416939E1,4.362552E1,0E0,0E0,0E0,0E0,0E0,0E0],"parents":[2147483647,0,0,1,1,2,2,3,3,5,5,6,6],"right_children":[2,4,6,8,-1,10,12,-1,-1,-1,-1,-1,-1],"split_conditions":[1.2117118E0,1.1187188E2,8.395123E-1,1.5819743E2,2.9479478E-2,1.7326787E2,7.9262173E-1,1.4689246E-2,-2.168733E-2,-2.787065E-2,7.937313E-3,1.8174212E-2,-1.6566338E-2],"split_indices":[131,101,164,290,0,87,69,0,0,0,0,0,0],"split_type":[0,0,0,0,0,0,0,0,0,0,0,0,0],"sum_hessian":[1.4019102E2,3.8244316E1,1.0194671E2,5.6216288E0,3.262269E1,4.8161186E1,5.3785522E1,1.9377208E0,3.683908E0,4.373419E1,4.426996E0,2.7136534E1,2.6648989E1],"tree_param":{"num_deleted":"0","num_feature":"408","num_nodes":"13","size_leaf_vector":"1"}},{"base_weights":[-7.895875E-5,-9.042332E-1,7.752748E-1,9.4073546E-1,-1.2269375E0,1.0427413E0,-7.964071E-1,-4.396238E-3,2.352147E-2,-2.8104367E-2,-0E0,3.3168434E-4,2.7489714E-2,1.2566362E-2,-2.346771E-2],"categories":[],"categories_nodes":[],"categories_segments":[],"categories_sizes":[],"default_left":[0,0,0,0,0,0,0,0,0,0,0,0,0,0,0],"id":18,"left_children":[1,3,5,7,9,11,13,-1,-1,-1,-1,-1,-1,-1,-1],"loss_changes":[1.0502732E2,4.3782063E1,3.55424E1,4.063904E0,1.288324E1,2.30084E1,8.482661E0,0E0,0E0,0E0,0E0,0E0,0E0,0E0,0E0],"parents":[2147483647,0,0,1,1,2,2,3,3,4,4,5,5,6,6],"right_children":[2,4,6,8,10,12,14,-1,-1,-1,-1,-1,-1,-1,-1],"split_conditions":[1.1716115E2,1.2386513E0,9.1700864E-1,1.0512901E2,1.7171535E2,8.7283456E-1,1.113781E2,-4.396238E-3,2.352147E-2,-2.8104367E-2,-0E0,3.3168434E-4,2.7489714E-2,1.2566362E-2,-2.346771E-2],"split_indices":[173,299,81,100,87,404,157,0,0,0,0,0,0,0,0],"split_type":[0,0,0,0,0,0,0,0,0,0,0,0,0,0,0],"sum_hessian":[1.4572462E2,6.741878E1,7.8305855E1,9.235834E0,5.8182945E1,6.776494E1,1.05409155E1,1.2211573E0,8.014676E0,5.040513E1,7.7778163E0,1.7436687E1,5.0328247E1,1.6490049E0,8.891911E0],"tree_param":{"num_deleted":"0","num_feature":"408","num_nodes":"15","size_leaf_vector":"1"}},{"base_weights":[4.0354345E-2,-8.335083E-1,8.0352885E-1,1.036849E0,-1.1503288E0,1.0711834E0,-5.742502E-1,-0E0,2.4700632E-2,-2.6958354E-2,3.2869144E-3,5.561284E-3,2.820486E-2,-1.9629829E-2,1.5639417E-2],"categories":[],"categories_nodes":[],"categories_segments":[],"categories_sizes":[],"default_left":[0,0,0,0,0,0,0,0,0,0,0,0,0,0,0],"id":19,"left_children":[1,3,5,7,9,11,13,-1,-1,-1,-1,-1,-1,-1,-1],"loss_changes":[9.585664E1,4.2000443E1,2.9869919E1,2.5198307E0,1.616983E1,1.5976753E1,9.102846E0,0E0,0E0,0E0,0E0,0E0,0E0,0E0,0E0],"parents":[2147483647,0,0,1,1,2,2,3,3,4,4,5,5,6,6],"right_children":[2,4,6,8,10,12,14,-1,-1,-1,-1,-1,-1,-1,-1],"split_conditions":[1.1716115E2,1.2091395E0,7.700866E-1,1.8855198E-1,1.6358972E2,7.521898E-1,7.611309E-1,-0E0,2.4700632E-2,-2.6958354E-2,3.2869144E-3,5.561284E-3,2.820486E-2,-1.9629829E-2,1.5639417E-2],"split_indices":[173,311,57,248,363,20,369,0,0,0,0,0,0,0,0],"split_type":[0,0,0,0,0,0,0,0,0,0,0,0,0,0,0],"sum_hessian":[1.3974654E2,6.475743E1,7.4989105E1,8.493328E0,5.6264103E1,6.3467525E1,1.1521576E1,1.445457E0,7.047871E0,4.9199425E1,7.064677E0,2.0538734E1,4.292879E1,9.569393E0,1.9521831E0],"tree_param":{"num_deleted":"0","num_feature":"408","num_nodes":"15","size_leaf_vector":"1"}},{"base_weights":[-3.986043E-3,1.1888847E0,-5.3000045E-1,-3.425234E-1,1.4368236E0,-1.0967995E0,2.726849E-1,-2.1108797E-2,1.3755297E-2,-0E0,2.9487452E-2,-2.4486842E-2,1.2192038E-2,-2.563307E-2,1.5643157E-2],"categories":[],"categories_nodes":[],"categories_segments":[],"categories_sizes":[],"default_left":[0,0,0,0,0,0,0,0,0,0,0,0,0,0,0],"id":20,"left_children":[1,3,5,7,9,11,13,-1,-1,-1,-1,-1,-1,-1,-1],"loss_changes":[9.468379E1,1.901638E1,4.894728E1,7.3285966E0,1.7686768E0,1.5406914E1,3.7267582E1,0E0,0E0,0E0,0E0,0E0,0E0,0E0,0E0],"parents":[2147483647,0,0,1,1,2,2,3,3,4,4,5,5,6,6],"right_children":[2,4,6,8,10,12,14,-1,-1,-1,-1,-1,-1,-1,-1],"split_conditions":[1.2393378E0,1.2224848E2,1.1741104E2,1.1187188E2,1.0902396E2,5.750304E-1,7.5021553E-1,-2.1108797E-2,1.3755297E-2,-0E0,2.9487452E-2,-2.4486842E-2,1.2192038E-2,-2.563307E-2,1.5643157E-2],"split_indices":[155,401,173,101,256,21,128,0,0,0,0,0,0,0,0],"split_type":[0,0,0,0,0,0,0,0,0,0,0,0,0,0,0],"sum_hessian":[1.4741501E2,4.4049877E1,1.0336513E2,5.7507095E0,3.8299168E1,6.0520184E1,4.2844944E1,3.6568198E0,2.0938897E0,1.2128826E0,3.7086285E1,5.710962E1,3.4105642E0,9.586138E0,3.325881E1],"tree_param":{"num_deleted":"0","num_feature":"408","num_nodes":"15","size_leaf_vector":"1"}},{"base_weights":[-8.643401E-3,-9.022161E-1,7.244733E-1,6.124181E-1,-1.2336335E0,9.875872E-1,-6.5010214E-1,-8.296145E-3,2.0744395E-2,-2.667176E-2,9.634742E-3,-1.6744334E-2,2.342742E-2,-2.2198433E-2,1.402343E-2],"categories":[],"categories_nodes":[],"categories_segments":[],"categories_sizes":[],"default_left":[0,0,0,0,0,0,0,0,0,0,0,0,0,0,0],"id":21,"left_children":[1,3,5,7,9,11,13,-1,-1,-1,-1,-1,-1,-1,-1],"loss_changes":[9.575666E1,3.500962E1,3.0359886E1,6.8161445E0,1.1171852E1,2.4995552E1,1.0299299E1,0E0,0E0,0E0,0E0,0E0,0E0,0E0,0E0],"parents":[2147483647,0,0,1,1,2,2,3,3,4,4,5,5,6,6],"right_children":[2,4,6,8,10,12,14,-1,-1,-1,-1,-1,-1,-1,-1],"split_conditions":[1.1716115E2,1.3882278E2,7.700866E-1,4.2954198E-1,1.7543875E2,1.24105576E2,1.7824672E2,-8.296145E-3,2.0744395E-2,-2.667176E-2,9.634742E-3,-1.6744334E-2,2.342742E-2,-2.2198433E-2,1.402343E-2],"split_indices":[173,349,57,189,87,206,398,0,0,0,0,0,0,0,0],"split_type":[0,0,0,0,0,0,0,0,0,0,0,0,0,0,0],"sum_hessian":[1.4204141E2,6.411472E1,7.79267E1,1.0935087E1,5.3179634E1,6.618478E1,1.1741922E1,2.8685637E0,8.066524E0,5.094754E1,2.2320938E0,5.156271E0,6.1028503E1,9.303361E0,2.4385612E0],"tree_param":{"num_deleted":"0","num_feature":"408","num_nodes":"15","size_leaf_vector":"1"}},{"base_weights":[-0E0,1.2122365E0,-5.292152E-1,-1.0496916E-2,1.3651361E0,-1.0233713E0,2.9122567E-1,-1.4806247E-3,2.8528744E-2,-2.336049E-2,1.7079376E-2,1.5811818E-2,-2.0418033E-2],"categories":[],"categories_nodes":[],"categories_segments":[],"categories_sizes":[],"default_left":[0,0,0,0,0,0,0,0,0,0,0,0,0],"id":22,"left_children":[1,3,5,-1,7,9,11,-1,-1,-1,-1,-1,-1],"loss_changes":[9.080896E1,1.3251854E1,4.1120724E1,0E0,4.439682E0,1.9163292E1,2.6666807E1,0E0,0E0,0E0,0E0,0E0,0E0],"parents":[2147483647,0,0,1,1,2,2,4,4,5,5,6,6],"right_children":[2,4,6,-1,8,10,12,-1,-1,-1,-1,-1,-1],"split_conditions":[1.2439028E0,1.4364122E2,9.782311E-1,-1.0496916E-2,1.25212006E2,1.7701599E2,9.1700864E-1,-1.4806247E-3,2.8528744E-2,-2.336049E-2,1.7079376E-2,1.5811818E-2,-2.0418033E-2],"split_indices":[143,110,128,0,302,27,81,0,0,0,0,0,0],"split_type":[0,0,0,0,0,0,0,0,0,0,0,0,0],"sum_hessian":[1.3796988E2,4.0917053E1,9.705283E1,2.6520402E0,3.8265015E1,6.064235E1,3.6410484E1,1.2131052E0,3.7051907E1,5.7252884E1,3.3894644E0,2.7225208E1,9.185275E0],"tree_param":{"num_deleted":"0","num_feature":"408","num_nodes":"13","size_leaf_vector":"1"}},{"base_weights":[1.211413E-2,1.0520431E0,-5.074377E-1,-2.495652E-1,1.3214056E0,-1.0716602E0,3.1730026E-1,1.4582818E-2,-1.9772202E-2,-1.0442006E-2,2.8307498E-2,-2.45208E-2,1.0115864E-2,-1.4945773E-2,2.2272496E-2],"categories":[],"categories_nodes":[],"categories_segments":[],"categories_sizes":[],"default_left":[0,0,0,0,0,0,0,0,0,0,0,0,0,0,0],"id":23,"left_children":[1,3,5,7,9,11,13,-1,-1,-1,-1,-1,-1,-1,-1],"loss_changes":[7.973101E1,1.8483322E1,4.6557793E1,8.673277E0,9.11203E0,1.5938461E1,3.652364E1,0E0,0E0,0E0,0E0,0E0,0E0,0E0,0E0],"parents":[2147483647,0,0,1,1,2,2,3,3,4,4,5,5,6,6],"right_children":[2,4,6,8,10,12,14,-1,-1,-1,-1,-1,-1,-1,-1],"split_conditions":[1.3020099E0,1.0931603E2,1.11099236E2,1.02573746E2,1.6859418E2,1.7455064E2,1.2437731E2,1.4582818E-2,-1.9772202E-2,-1.0442006E-2,2.8307498E-2,-2.45208E-2,1.0115864E-2,-1.4945773E-2,2.2272496E-2],"split_indices":[371,5,389,37,398,3,386,0,0,0,0,0,0,0,0],"split_type":[0,0,0,0,0,0,0,0,0,0,0,0,0,0,0],"sum_hessian":[1.4308873E2,4.7308716E1,9.578002E1,7.8185997E0,3.949012E1,5.6876766E1,3.890325E1,3.0843263E0,4.7342734E0,1.2152905E0,3.8274826E1,5.250117E1,4.3755946E0,1.6431547E1,2.2471706E1],"tree_param":{"num_deleted":"0","num_feature":"408","num_nodes":"15","size_leaf_vector":"1"}},{"base_weights":[5.810282E-2,1.2272162E0,-4.4367355E-1,-6.853082E-2,2.8337821E-2,-1.2697428E0,5.4134805E-2,-1.819091E-2,1.5163339E-2,1.4336115E-2,-2.811346E-2,-1.4347624E-2,1.4668192E-2],"categories":[],"categories_nodes":[],"categories_segments":[],"categories_sizes":[],"default_left":[0,0,0,0,0,0,0,0,0,0,0,0,0],"id":24,"left_children":[1,3,5,7,-1,9,11,-1,-1,-1,-1,-1,-1],"loss_changes":[8.284169E1,1.1308708E1,4.113215E1,6.318542E0,0E0,1.2455887E1,3.3983574E1,0E0,0E0,0E0,0E0,0E0,0E0],"parents":[2147483647,0,0,1,1,2,2,3,3,5,5,6,6],"right_children":[2,4,6,8,-1,10,12,-1,-1,-1,-1,-1,-1],"split_conditions":[1.234867E0,7.4643684E1,7.738017E-1,1.1770261E2,2.8337821E-2,2.0130338E-2,1.1828522E2,-1.819091E-2,1.5163339E-2,1.4336115E-2,-2.811346E-2,-1.4347624E-2,1.4668192E-2],"split_indices":[155,54,140,353,0,383,28,0,0,0,0,0,0],"split_type":[0,0,0,0,0,0,0,0,0,0,0,0,0],"sum_hessian":[1.3669128E2,4.0479977E1,9.621131E1,4.995432E0,3.5484547E1,3.5389164E1,6.0822147E1,2.6767306E0,2.318701E0,1.4835027E0,3.3905663E1,2.8080366E1,3.274178E1],"tree_param":{"num_deleted":"0","num_feature":"408","num_nodes":"13","size_leaf_vector":"1"}},{"base_weights":[7.791152E-3,-8.229513E-1,7.498831E-1,2.0767016E-2,-1.1150542E0,-1.3288807E-3,1.2477065E0,-2.610045E-2,3.1598087E-3,-1.22430725E-2,2.4171704E-2,-5.6274184E-3,2.6936399E-2],"categories":[],"categories_nodes":[],"categories_segments":[],"categories_sizes":[],"default_left":[0,0,0,0,0,0,0,0,0,0,0,0,0],"id":25,"left_children":[1,3,5,-1,7,9,11,-1,-1,-1,-1,-1,-1],"loss_changes":[8.889297E1,3.9190056E1,2.9234589E1,0E0,1.5437637E1,2.489533E1,8.324318E0,0E0,0E0,0E0,0E0,0E0,0E0],"parents":[2147483647,0,0,1,1,2,2,4,4,5,5,6,6],"right_children":[2,4,6,-1,8,10,12,-1,-1,-1,-1,-1,-1],"split_conditions":[1.1716115E2,1.2091395E0,1.2437731E2,2.0767016E-2,1.7229504E2,1.4849002E2,7.159804E1,-2.610045E-2,3.1598087E-3,-1.22430725E-2,2.4171704E-2,-5.6274184E-3,2.6936399E-2],"split_indices":[173,311,386,0,87,401,78,0,0,0,0,0,0],"split_type":[0,0,0,0,0,0,0,0,0,0,0,0,0],"sum_hessian":[1.4024991E2,6.575175E1,7.449816E1,7.9937506E0,5.7758E1,3.0087154E1,4.441101E1,5.0556324E1,7.2016745E0,2.0924688E1,9.162466E0,2.17248E0,4.223853E1],"tree_param":{"num_deleted":"0","num_feature":"408","num_nodes":"13","size_leaf_vector":"1"}},{"base_weights":[-8.751978E-3,9.823843E-1,-5.299767E-1,-4.167191E-1,1.3057319E0,-8.698528E-1,4.3431553E-1,-1.9770345E-2,1.4624145E-2,2.8033974E-2,-1.0381775E-2,-2.163292E-2,1.5164663E-2,-1.8348357E-2,1.775992E-2],"categories":[],"categories_nodes":[],"categories_segments":[],"categories_sizes":[],"default_left":[0,0,0,0,0,0,0,0,0,0,0,0,0,0,0],"id":26,"left_children":[1,3,5,7,9,11,13,-1,-1,-1,-1,-1,-1,-1,-1],"loss_changes":[7.31721E1,2.353817E1,3.1591057E1,8.37253E0,8.951256E0,2.598198E1,1.7127958E1,0E0,0E0,0E0,0E0,0E0,0E0,0E0,0E0],"parents":[2147483647,0,0,1,1,2,2,3,3,4,4,5,5,6,6],"right_children":[2,4,6,8,10,12,14,-1,-1,-1,-1,-1,-1,-1,-1],"split_conditions":[1.3020099E0,1.0931603E2,1.0836902E0,1.1675889E2,9.79142E1,1.7455064E2,1.1950596E2,-1.9770345E-2,1.4624145E-2,2.8033974E-2,-1.0381775E-2,-2.163292E-2,1.5164663E-2,-1.8348357E-2,1.775992E-2],"split_indices":[371,5,116,329,366,3,16,0,0,0,0,0,0,0,0],"split_type":[0,0,0,0,0,0,0,0,0,0,0,0,0,0,0],"sum_hessian":[1.3806262E2,4.664186E1,9.142076E1,8.357156E0,3.8284706E1,6.812404E1,2.3296726E1,6.054585E0,2.3025713E0,3.70728E1,1.211907E0,6.1147858E1,6.976178E0,5.0635448E0,1.8233181E1],"tree_param":{"num_deleted":"0","num_feature":"408","num_nodes":"15","size_leaf_vector":"1"}},{"base_weights":[-9.869208E-5,-7.908603E-1,6.912404E-1,7.971578E-1,-1.1041443E0,-8.9233273E-1,9.19831E-1,-6.872957E-3,2.327892E-2,4.3262E-3,-2.4324063E-2,1.0566022E-2,-2.5668139E-2,-9.293046E-3,2.1994822E-2],"categories":[],"categories_nodes":[],"categories_segments":[],"categories_sizes":[],"default_left":[0,0,0,0,0,0,0,0,0,0,0,0,0,0,0],"id":27,"left_children":[1,3,5,7,9,11,13,-1,-1,-1,-1,-1,-1,-1,-1],"loss_changes":[7.8984474E1,3.5588833E1,2.9419872E1,6.2529726E0,9.554512E0,7.519535E0,1.8348236E1,0E0,0E0,0E0,0E0,0E0,0E0,0E0,0E0],"parents":[2147483647,0,0,1,1,2,2,3,3,4,4,5,5,6,6],"right_children":[2,4,6,8,10,12,14,-1,-1,-1,-1,-1,-1,-1,-1],"split_conditions":[1.1717527E2,1.2810062E2,1.3094852E2,8.215646E1,2.1383753E-2,1.0849182E2,1.3526984E2,-6.872957E-3,2.327892E-2,4.3262E-3,-2.4324063E-2,1.0566022E-2,-2.5668139E-2,-9.293046E-3,2.1994822E-2],"split_indices":[173,337,27,271,383,72,2,0,0,0,0,0,0,0,0],"split_type":[0,0,0,0,0,0,0,0,0,0,0,0,0,0,0],"sum_hessian":[1.4038803E2,6.568831E1,7.4699715E1,1.0051717E1,5.563659E1,8.414345E0,6.628537E1,2.1445642E0,7.9071527E0,3.857606E0,5.1778984E1,1.3888438E0,7.025501E0,6.939382E0,5.934599E1],"tree_param":{"num_deleted":"0","num_feature":"408","num_nodes":"15","size_leaf_vector":"1"}},{"base_weights":[2.1007434E-2,1.255564E0,-3.694427E-1,-2.7507325E-3,1.3403012E0,-7.3801064E-1,6.627069E-1,2.7679427E-2,-0E0,-2.3512917E-2,3.3359597E-3,-7.1281223E-3,2.482698E-2],"categories":[],"categories_nodes":[],"categories_segments":[],"categories_sizes":[],"default_left":[0,0,0,0,0,0,0,0,0,0,0,0,0],"id":28,"left_children":[1,3,5,-1,7,9,11,-1,-1,-1,-1,-1,-1],"loss_changes":[6.755142E1,4.9542923E0,4.1166527E1,0E0,1.6037598E0,3.220863E1,1.8115149E1,0E0,0E0,0E0,0E0,0E0,0E0],"parents":[2147483647,0,0,1,1,2,2,4,4,5,5,6,6],"right_children":[2,4,6,-1,8,10,12,-1,-1,-1,-1,-1,-1],"split_conditions":[1.1965017E2,6.753284E1,1.6291066E2,-2.7507325E-3,9.904416E1,1.1973637E2,8.196671E-1,2.7679427E-2,-0E0,-2.3512917E-2,3.3359597E-3,-7.1281223E-3,2.482698E-2],"split_indices":[25,127,363,0,198,185,164,0,0,0,0,0,0],"split_type":[0,0,0,0,0,0,0,0,0,0,0,0,0],"sum_hessian":[1.3529492E2,3.1751066E1,1.0354385E2,1.4107758E0,3.034029E1,7.7075516E1,2.646834E1,2.9168848E1,1.171443E0,5.1917942E1,2.5157574E1,9.551004E0,1.6917336E1],"tree_param":{"num_deleted":"0","num_feature":"408","num_nodes":"13","size_leaf_vector":"1"}},{"base_weights":[6.2794685E-2,1.2293866E0,-3.8436842E-1,-1.33844E-2,2.7076313E-2,-9.357041E-1,3.6106715E-1,-2.2141457E-2,1.28277885E-2,-1.3016961E-2,1.6805034E-2],"categories":[],"categories_nodes":[],"categories_segments":[],"categories_sizes":[],"default_left":[0,0,0,0,0,0,0,0,0,0,0],"id":29,"left_children":[1,3,5,-1,-1,7,9,-1,-1,-1,-1],"loss_changes":[7.307432E1,1.1338337E1,4.2301582E1,0E0,0E0,1.7534302E1,2.2437439E1,0E0,0E0,0E0,0E0],"parents":[2147483647,0,0,1,1,2,2,5,5,6,6],"right_children":[2,4,6,-1,-1,8,10,-1,-1,-1,-1],"split_conditions":[1.2062328E0,1.4610274E-1,1.1790165E2,-1.33844E-2,2.7076313E-2,1.6615277E2,1.18664604E2,-2.2141457E-2,1.28277885E-2,-1.3016961E-2,1.6805034E-2],"split_indices":[191,284,173,0,0,363,52,0,0,0,0],"split_type":[0,0,0,0,0,0,0,0,0,0,0],"sum_hessian":[1.354596E2,3.687554E1,9.858405E1,1.4823321E0,3.5393208E1,5.676215E1,4.1821907E1,5.2022434E1,4.739717E0,1.2874448E1,2.8947458E1],"tree_param":{"num_deleted":"0","num_feature":"408","num_nodes":"11","size_leaf_vector":"1"}},{"base_weights":[5.2012927E-3,-7.5611234E-1,6.6949457E-1,9.4732046E-1,-1.0582979E0,-1.0655521E-1,1.058864E0,-0E0,2.2241158E-2,-2.4349583E-2,1.4365252E-2,-1.8511899E-2,2.0433895E-2,-9.764748E-3,2.4349198E-2],"categories":[],"categories_nodes":[],"categories_segments":[],"categories_sizes":[],"default_left":[0,0,0,0,0,0,0,0,0,0,0,0,0,0,0],"id":30,"left_children":[1,3,5,7,9,11,13,-1,-1,-1,-1,-1,-1,-1,-1],"loss_changes":[7.116625E1,3.5656654E1,2.3526417E1,1.8220167E0,1.801231E1,2.6446741E1,1.4045132E1,0E0,0E0,0E0,0E0,0E0,0E0,0E0,0E0],"parents":[2147483647,0,0,1,1,2,2,3,3,4,4,5,5,6,6],"right_children":[2,4,6,8,10,12,14,-1,-1,-1,-1,-1,-1,-1,-1],"split_conditions":[1.1717527E2,1.2091395E0,1.6279796E2,8.374194E1,1.6615277E2,1.765062E2,1.25134575E2,-0E0,2.2241158E-2,-2.4349583E-2,1.4365252E-2,-1.8511899E-2,2.0433895E-2,-9.764748E-3,2.4349198E-2],"split_indices":[173,311,86,271,363,398,206,0,0,0,0,0,0,0,0],"split_type":[0,0,0,0,0,0,0,0,0,0,0,0,0,0,0],"sum_hessian":[1.3680206E2,6.3266426E1,7.353563E1,8.639695E0,5.4626728E1,2.4624748E1,4.8910885E1,1.4454691E0,7.1942263E0,5.0970566E1,3.6561651E0,1.4732364E1,9.892385E0,3.868086E0,4.5042797E1],"tree_param":{"num_deleted":"0","num_feature":"408","num_nodes":"15","size_leaf_vector":"1"}},{"base_weights":[-8.333293E-3,1.1391541E0,-4.4070062E-1,-1.7289636E-1,2.6355116E-2,-7.9205245E-1,6.257867E-1,1.0444694E-2,-1.5540956E-2,-1.9284405E-2,1.5764296E-2,-1.0136753E-2,2.5172114E-2],"categories":[],"categories_nodes":[],"categories_segments":[],"categories_sizes":[],"default_left":[0,0,0,0,0,0,0,0,0,0,0,0,0],"id":31,"left_children":[1,3,5,7,-1,9,11,-1,-1,-1,-1,-1,-1],"loss_changes":[6.8020065E1,9.792442E0,3.8687603E1,3.4225879E0,0E0,2.2486645E1,2.0028559E1,0E0,0E0,0E0,0E0,0E0,0E0],"parents":[2147483647,0,0,1,1,2,2,3,3,5,5,6,6],"right_children":[2,4,6,8,-1,10,12,-1,-1,-1,-1,-1,-1],"split_conditions":[1.223757E0,7.538986E1,1.6291066E2,3.950992E-1,2.6355116E-2,1.3024748E2,8.196671E-1,1.0444694E-2,-1.5540956E-2,-1.9284405E-2,1.5764296E-2,-1.0136753E-2,2.5172114E-2],"split_indices":[131,271,363,33,0,40,164,0,0,0,0,0,0],"split_type":[0,0,0,0,0,0,0,0,0,0,0,0,0],"sum_hessian":[1.3377979E2,3.5400997E1,9.8378784E1,3.9137828E0,3.1487215E1,7.473951E1,2.3639278E1,1.5611316E0,2.3526514E0,6.8385124E1,6.3543844E0,8.332949E0,1.5306331E1],"tree_param":{"num_deleted":"0","num_feature":"408","num_nodes":"13","size_leaf_vector":"1"}},{"base_weights":[1.101931E-2,-7.303843E-1,6.457678E-1,-1.0250012E0,6.4001375E-1,8.8844854E-1,-7.1243453E-1,1.2562896E-2,-2.4677148E-2,2.3301458E-2,-1.1217575E-2,5.528746E-4,2.6490062E-2,1.2466278E-2,-2.231008E-2],"categories":[],"categories_nodes":[],"categories_segments":[],"categories_sizes":[],"default_left":[0,0,0,0,0,0,0,0,0,0,0,0,0,0,0],"id":32,"left_children":[1,3,5,7,9,11,13,-1,-1,-1,-1,-1,-1,-1,-1],"loss_changes":[6.368684E1,2.658208E1,2.5515114E1,1.9873013E1,9.126006E0,2.304567E1,8.04887E0,0E0,0E0,0E0,0E0,0E0,0E0,0E0,0E0],"parents":[2147483647,0,0,1,1,2,2,3,3,4,4,5,5,6,6],"right_children":[2,4,6,8,10,12,14,-1,-1,-1,-1,-1,-1,-1,-1],"split_conditions":[1.1704506E2,1.7242093E2,9.1700864E-1,1.2624109E0,6.721296E-1,7.8464746E-1,1.0728928E2,1.2562896E-2,-2.4677148E-2,2.3301458E-2,-1.1217575E-2,5.528746E-4,2.6490062E-2,1.2466278E-2,-2.231008E-2],"split_indices":[173,87,81,335,333,176,24,0,0,0,0,0,0,0,0],"split_type":[0,0,0,0,0,0,0,0,0,0,0,0,0,0,0],"sum_hessian":[1.3141519E2,6.0112778E1,7.1302414E1,5.019128E1,9.9215E0,6.139275E1,9.909666E0,4.910941E0,4.528034E1,7.23444E0,2.6870604E0,2.174329E1,3.964946E1,1.7562475E0,8.153419E0],"tree_param":{"num_deleted":"0","num_feature":"408","num_nodes":"15","size_leaf_vector":"1"}},{"base_weights":[-3.0456718E-2,-8.112601E-1,6.433844E-1,1.7341208E-2,-1.0595304E0,8.982056E-1,-6.964574E-1,7.1408497E-3,-2.3510901E-2,-1.7834766E-2,2.1162279E-2,-2.1961808E-2,1.3262082E-2],"categories":[],"categories_nodes":[],"categories_segments":[],"categories_sizes":[],"default_left":[0,0,0,0,0,0,0,0,0,0,0,0,0],"id":33,"left_children":[1,3,5,-1,7,9,11,-1,-1,-1,-1,-1,-1],"loss_changes":[7.34868E1,2.8991058E1,2.6819317E1,0E0,1.0735878E1,2.0248707E1,8.626331E0,0E0,0E0,0E0,0E0,0E0,0E0],"parents":[2147483647,0,0,1,1,2,2,4,4,5,5,6,6],"right_children":[2,4,6,-1,8,10,12,-1,-1,-1,-1,-1,-1],"split_conditions":[1.1716115E2,1.2091395E0,7.700866E-1,1.7341208E-2,2.1383753E-2,1.24105576E2,1.7150168E2,7.1408497E-3,-2.3510901E-2,-1.7834766E-2,2.1162279E-2,-2.1961808E-2,1.3262082E-2],"split_indices":[173,311,57,0,383,206,3,0,0,0,0,0,0],"split_type":[0,0,0,0,0,0,0,0,0,0,0,0,0],"sum_hessian":[1.3552863E2,6.2936287E1,7.259234E1,7.208396E0,5.572789E1,6.1859795E1,1.0732547E1,3.5777402E0,5.215015E1,4.066071E0,5.7793724E1,8.865857E0,1.8666897E0],"tree_param":{"num_deleted":"0","num_feature":"408","num_nodes":"13","size_leaf_vector":"1"}},{"base_weights":[-9.08805E-3,1.2148395E0,-4.382767E-1,-2.5250008E-3,2.6017457E-2,-7.976096E-1,7.2850156E-1,-2.107767E-2,6.178377E-3,-1.6016994E-2,2.5148071E-2],"categories":[],"categories_nodes":[],"categories_segments":[],"categories_sizes":[],"default_left":[0,0,0,0,0,0,0,0,0,0,0],"id":34,"left_children":[1,3,5,-1,-1,7,9,-1,-1,-1,-1],"loss_changes":[7.005928E1,4.8986244E0,4.2939796E1,0E0,0E0,2.2973068E1,2.1785141E1,0E0,0E0,0E0,0E0],"parents":[2147483647,0,0,1,1,2,2,5,5,6,6],"right_children":[2,4,6,-1,-1,8,10,-1,-1,-1,-1],"split_conditions":[1.1965017E2,9.9561264E1,1.6291066E2,-2.5250008E-3,2.6017457E-2,1.2336096E2,1.15448E2,-2.107767E-2,6.178377E-3,-1.6016994E-2,2.5148071E-2],"split_indices":[25,4,363,0,0,161,173,0,0,0,0],"split_type":[0,0,0,0,0,0,0,0,0,0,0],"sum_hessian":[1.300831E2,3.2519726E1,9.756337E1,1.5537206E0,3.0966005E1,7.540286E1,2.2160505E1,6.166757E1,1.3735294E1,5.187332E0,1.6973173E1],"tree_param":{"num_deleted":"0","num_feature":"408","num_nodes":"11","size_leaf_vector":"1"}},{"base_weights":[-2.5746755E-2,-8.045213E-1,6.032854E-1,7.769445E-1,-1.0582519E0,8.974072E-1,-7.193325E-1,-9.951476E-4,2.0584987E-2,8.229994E-3,-2.3597531E-2,-8.691773E-3,2.3247404E-2,-2.5124477E-2,6.1930288E-3],"categories":[],"categories_nodes":[],"categories_segments":[],"categories_sizes":[],"default_left":[0,0,0,0,0,0,0,0,0,0,0,0,0,0,0],"id":35,"left_children":[1,3,5,7,9,11,13,-1,-1,-1,-1,-1,-1,-1,-1],"loss_changes":[6.821699E1,2.6846596E1,3.1182604E1,2.5770059E0,1.1176243E1,2.3916794E1,9.393408E0,0E0,0E0,0E0,0E0,0E0,0E0,0E0,0E0],"parents":[2147483647,0,0,1,1,2,2,3,3,4,4,5,5,6,6],"right_children":[2,4,6,8,10,12,14,-1,-1,-1,-1,-1,-1,-1,-1],"split_conditions":[1.1704506E2,1.2091395E0,7.700866E-1,8.374194E1,2.1383753E-2,1.7397678E2,1.7686845E2,-9.951476E-4,2.0584987E-2,8.229994E-3,-2.3597531E-2,-8.691773E-3,2.3247404E-2,-2.5124477E-2,6.1930288E-3],"split_indices":[173,311,57,271,383,398,398,0,0,0,0,0,0,0,0],"split_type":[0,0,0,0,0,0,0,0,0,0,0,0,0,0,0],"sum_hessian":[1.3506712E2,6.0456158E1,7.461097E1,7.515894E0,5.294026E1,6.1872807E1,1.2738163E1,1.6694909E0,5.846403E0,3.3675847E0,4.9572678E1,9.740233E0,5.2132576E1,8.399701E0,4.338462E0],"tree_param":{"num_deleted":"0","num_feature":"408","num_nodes":"15","size_leaf_vector":"1"}},{"base_weights":[9.655629E-4,-6.97263E-1,6.880958E-1,1.8963965E-2,-9.6488136E-1,-6.298088E-1,9.41847E-1,1.7003281E-2,-2.1505417E-2,1.3820208E-2,-2.2113392E-2,-1.2440234E-2,2.1402976E-2],"categories":[],"categories_nodes":[],"categories_segments":[],"categories_sizes":[],"default_left":[0,0,0,0,0,0,0,0,0,0,0,0,0],"id":36,"left_children":[1,3,5,-1,7,9,11,-1,-1,-1,-1,-1,-1],"loss_changes":[6.3054443E1,3.0387024E1,2.3615896E1,0E0,1.3364479E1,9.047559E0,1.2986061E1,0E0,0E0,0E0,0E0,0E0,0E0],"parents":[2147483647,0,0,1,1,2,2,4,4,5,5,6,6],"right_children":[2,4,6,-1,8,10,12,-1,-1,-1,-1,-1,-1],"split_conditions":[1.1790165E2,1.1952807E0,1.11614975E2,1.8963965E-2,6.3332745E1,1.1702565E2,1.11210526E2,1.7003281E-2,-2.1505417E-2,1.3820208E-2,-2.2113392E-2,-1.2440234E-2,2.1402976E-2],"split_indices":[173,275,386,0,270,85,52,0,0,0,0,0,0],"split_type":[0,0,0,0,0,0,0,0,0,0,0,0,0],"sum_hessian":[1.2743483E2,6.283142E1,6.460341E1,7.8165493E0,5.501487E1,9.633839E0,5.496957E1,2.126023E0,5.2888847E1,2.0337884E0,7.60005E0,3.2888563E0,5.1680714E1],"tree_param":{"num_deleted":"0","num_feature":"408","num_nodes":"13","size_leaf_vector":"1"}},{"base_weights":[-5.452352E-2,1.0093032E0,-4.4129935E-1,-1.0051495E-2,1.2171531E0,-9.731165E-1,2.5532934E-1,-0E0,2.5309388E-2,-2.1279797E-2,1.1898514E-2,-1.8046752E-2,1.34363575E-2],"categories":[],"categories_nodes":[],"categories_segments":[],"categories_sizes":[],"default_left":[0,0,0,0,0,0,0,0,0,0,0,0,0],"id":37,"left_children":[1,3,5,-1,7,9,11,-1,-1,-1,-1,-1,-1],"loss_changes":[5.5730736E1,1.2888615E1,3.789863E1,0E0,2.0990028E0,9.697155E0,2.2535303E1,0E0,0E0,0E0,0E0,0E0,0E0],"parents":[2147483647,0,0,1,1,2,2,4,4,5,5,6,6],"right_children":[2,4,6,-1,8,10,12,-1,-1,-1,-1,-1,-1],"split_conditions":[1.2223803E0,1.4364122E2,1.1790165E2,-1.0051495E-2,6.896182E1,9.118628E-1,7.6155204E-1,-0E0,2.5309388E-2,-2.1279797E-2,1.1898514E-2,-1.8046752E-2,1.34363575E-2],"split_indices":[191,110,173,0,258,201,116,0,0,0,0,0,0],"split_type":[0,0,0,0,0,0,0,0,0,0,0,0,0],"sum_hessian":[1.3197073E2,3.398452E1,9.7986206E1,3.473938E0,3.0510584E1,5.552302E1,4.2463184E1,1.1244323E0,2.938615E1,5.3390633E1,2.1323912E0,1.0299956E1,3.2163227E1],"tree_param":{"num_deleted":"0","num_feature":"408","num_nodes":"13","size_leaf_vector":"1"}},{"base_weights":[1.6603762E-2,1.0070771E0,-3.8643587E-1,-4.2788932E-1,1.2385238E0,-1.0242883E0,1.6912188E-1,-1.8691398E-2,9.740376E-3,2.5641305E-2,-0E0,-2.4591915E-2,1.0571288E-2,1.648753E-2,-1.1314504E-2],"categories":[],"categories_nodes":[],"categories_segments":[],"categories_sizes":[],"default_left":[0,0,0,0,0,0,0,0,0,0,0,0,0,0,0],"id":38,"left_children":[1,3,5,7,9,11,13,-1,-1,-1,-1,-1,-1,-1,-1],"loss_changes":[5.340384E1,1.4356884E1,3.4167027E1,4.1832333E0,1.7126617E0,1.5859848E1,2.5938646E1,0E0,0E0,0E0,0E0,0E0,0E0,0E0,0E0],"parents":[2147483647,0,0,1,1,2,2,3,3,4,4,5,5,6,6],"right_children":[2,4,6,8,10,12,14,-1,-1,-1,-1,-1,-1,-1,-1],"split_conditions":[1.2526484E0,7.538986E1,8.2967156E-1,7.8401464E-1,1.6417525E2,1.7326787E2,7.9262173E-1,-1.8691398E-2,9.740376E-3,2.5641305E-2,-0E0,-2.4591915E-2,1.0571288E-2,1.648753E-2,-1.1314504E-2],"split_indices":[143,271,164,20,96,87,69,0,0,0,0,0,0,0,0],"split_type":[0,0,0,0,0,0,0,0,0,0,0,0,0,0,0],"sum_hessian":[1.2905005E2,3.681646E1,9.22336E1,4.5775967E0,3.223886E1,4.257013E1,4.9663467E1,3.2701137E0,1.3074827E0,3.099468E1,1.2441822E0,3.8251156E1,4.318975E0,2.6484388E1,2.3179077E1],"tree_param":{"num_deleted":"0","num_feature":"408","num_nodes":"15","size_leaf_vector":"1"}},{"base_weights":[4.5453865E-2,1.0226165E0,-3.7257192E-1,-1.0789251E-2,2.4774773E-2,-9.353927E-1,2.0916726E-1,-2.4637789E-2,4.993317E-3,-1.8390799E-2,1.5809914E-2],"categories":[],"categories_nodes":[],"categories_segments":[],"categories_sizes":[],"default_left":[0,0,0,0,0,0,0,0,0,0,0],"id":39,"left_children":[1,3,5,-1,-1,7,9,-1,-1,-1,-1],"loss_changes":[5.004708E1,1.4111404E1,2.8602596E1,0E0,0E0,1.6577812E1,2.961818E1,0E0,0E0,0E0,0E0],"parents":[2147483647,0,0,1,1,2,2,5,5,6,6],"right_children":[2,4,6,-1,-1,8,10,-1,-1,-1,-1],"split_conditions":[1.2526484E0,1.4364122E2,1.5661517E2,-1.0789251E-2,2.4774773E-2,1.1211402E0,1.5470021E2,-2.4637789E-2,4.993317E-3,-1.8390799E-2,1.5809914E-2],"split_indices":[143,110,0,0,0,152,51,0,0,0,0],"split_type":[0,0,0,0,0,0,0,0,0,0,0],"sum_hessian":[1.1785938E2,3.4804676E1,8.30547E1,3.5852985E0,3.1219378E1,4.2032635E1,4.102207E1,3.38951E1,8.137532E0,1.32575445E1,2.7764526E1],"tree_param":{"num_deleted":"0","num_feature":"408","num_nodes":"11","size_leaf_vector":"1"}},{"base_weights":[-3.523311E-2,8.2868046E-1,-5.3910524E-1,2.1385577E-2,2.5252547E-2,-1.0024091E0,1.3948429E-1,-8.27382E-3,1.7198065E-2,3.8196181E-3,-2.2548497E-2,1.1636701E-2,-2.0192923E-2],"categories":[],"categories_nodes":[],"categories_segments":[],"categories_sizes":[],"default_left":[0,0,0,0,0,0,0,0,0,0,0,0,0],"id":40,"left_children":[1,3,5,7,-1,9,11,-1,-1,-1,-1,-1,-1],"loss_changes":[5.6573006E1,1.6002304E1,2.6672817E1,7.903161E0,0E0,8.321953E0,1.8661741E1,0E0,0E0,0E0,0E0,0E0,0E0],"parents":[2147483647,0,0,1,1,2,2,3,3,5,5,6,6],"right_children":[2,4,6,8,-1,10,12,-1,-1,-1,-1,-1,-1],"split_conditions":[1.4527158E2,1.1776694E2,1.1790165E2,1.6718471E2,2.5252547E-2,2.1383753E-2,9.1422856E-1,-8.27382E-3,1.7198065E-2,3.8196181E-3,-2.2548497E-2,1.1636701E-2,-2.0192923E-2],"split_indices":[145,245,173,183,0,383,81,0,0,0,0,0,0],"split_type":[0,0,0,0,0,0,0,0,0,0,0,0,0],"sum_hessian":[1.26242714E2,4.5665466E1,8.057725E1,1.7101467E1,2.8563997E1,4.7755108E1,3.2822144E1,1.1533921E1,5.567546E0,4.04899E0,4.3706116E1,2.4726345E1,8.095799E0],"tree_param":{"num_deleted":"0","num_feature":"408","num_nodes":"13","size_leaf_vector":"1"}},{"base_weights":[5.2598987E-2,-6.977108E-1,5.8369887E-1,1.880226E-2,-8.850585E-1,-6.6099346E-1,8.259961E-1,-2.1598654E-2,1.2703061E-2,-2.2027029E-2,1.4441143E-2,2.271791E-3,2.43795E-2],"categories":[],"categories_nodes":[],"categories_segments":[],"categories_sizes":[],"default_left":[0,0,0,0,0,0,0,0,0,0,0,0,0],"id":41,"left_children":[1,3,5,-1,7,9,11,-1,-1,-1,-1,-1,-1],"loss_changes":[5.1263412E1,1.7915066E1,2.4002018E1,0E0,1.6083858E1,9.763575E0,1.7137642E1,0E0,0E0,0E0,0E0,0E0,0E0],"parents":[2147483647,0,0,1,1,2,2,4,4,5,5,6,6],"right_children":[2,4,6,-1,8,10,12,-1,-1,-1,-1,-1,-1],"split_conditions":[1.1636357E2,9.01444E1,1.3559224E2,1.880226E-2,1.7542554E2,1.7082999E2,1.5172841E2,-2.1598654E-2,1.2703061E-2,-2.2027029E-2,1.4441143E-2,2.271791E-3,2.43795E-2],"split_indices":[5,277,2,0,27,3,27,0,0,0,0,0,0],"split_type":[0,0,0,0,0,0,0,0,0,0,0,0,0],"sum_hessian":[1.24743416E2,5.1051582E1,7.369184E1,4.1414557E0,4.6910126E1,1.1108307E1,6.258353E1,4.238498E1,4.525145E0,9.008814E0,2.0994935E0,2.3618134E1,3.8965397E1],"tree_param":{"num_deleted":"0","num_feature":"408","num_nodes":"13","size_leaf_vector":"1"}},{"base_weights":[5.947567E-2,-6.2861824E-1,6.786569E-1,7.405006E-1,-9.282524E-1,-2.132674E-1,9.798811E-1,2.0737233E-2,-7.2651193E-3,3.7661835E-3,-2.3159012E-2,-2.3056943E-2,7.199842E-3,-1.0805796E-2,2.1995356E-2],"categories":[],"categories_nodes":[],"categories_segments":[],"categories_sizes":[],"default_left":[0,0,0,0,0,0,0,0,0,0,0,0,0,0,0],"id":42,"left_children":[1,3,5,7,9,11,13,-1,-1,-1,-1,-1,-1,-1,-1],"loss_changes":[5.5335304E1,2.657309E1,1.9237776E1,4.9502826E0,1.4102196E1,1.1216722E1,1.09585E1,0E0,0E0,0E0,0E0,0E0,0E0,0E0,0E0],"parents":[2147483647,0,0,1,1,2,2,3,3,4,4,5,5,6,6],"right_children":[2,4,6,8,10,12,14,-1,-1,-1,-1,-1,-1,-1,-1],"split_conditions":[1.1717527E2,1.1844255E2,1.7572266E2,5.9875447E-1,6.9741726E-1,1.4937962E2,1.25134575E2,2.0737233E-2,-7.2651193E-3,3.7661835E-3,-2.3159012E-2,-2.3056943E-2,7.199842E-3,-1.0805796E-2,2.1995356E-2],"split_indices":[173,205,398,45,93,98,206,0,0,0,0,0,0,0,0],"split_type":[0,0,0,0,0,0,0,0,0,0,0,0,0,0,0],"sum_hessian":[1.2581701E2,5.919538E1,6.662163E1,9.800865E0,4.9394516E1,1.6547783E1,5.0073845E1,8.178998E0,1.6218672E0,8.117761E0,4.1276756E1,5.8347235E0,1.0713059E1,2.8428164E0,4.7231026E1],"tree_param":{"num_deleted":"0","num_feature":"408","num_nodes":"15","size_leaf_vector":"1"}},{"base_weights":[-6.310305E-2,8.38098E-1,-5.1525307E-1,-0E0,2.4314774E-2,-6.8655854E-1,2.1704674E-2,-1.4461802E-2,1.982685E-2,-1.8924337E-2,3.1179308E-3],"categories":[],"categories_nodes":[],"categories_segments":[],"categories_sizes":[],"default_left":[0,0,0,0,0,0,0,0,0,0,0],"id":43,"left_children":[1,3,5,7,-1,9,-1,-1,-1,-1,-1],"loss_changes":[5.1728355E1,1.3417019E1,2.459414E1,1.2233921E1,0E0,1.7814995E1,0E0,0E0,0E0,0E0,0E0],"parents":[2147483647,0,0,1,1,2,2,3,3,5,5],"right_children":[2,4,6,8,-1,10,-1,-1,-1,-1,-1],"split_conditions":[1.3020099E0,1.5441304E2,1.7701599E2,7.6467866E-1,2.4314774E-2,1.084413E0,2.1704674E-2,-1.4461802E-2,1.982685E-2,-1.8924337E-2,3.1179308E-3],"split_indices":[371,303,27,80,0,368,0,0,0,0,0],"split_type":[0,0,0,0,0,0,0,0,0,0,0],"sum_hessian":[1.232242E2,4.0228977E1,8.2995224E1,1.3082566E1,2.714641E1,7.628468E1,6.710538E0,7.9024444E0,5.180122E0,5.8577366E1,1.7707317E1],"tree_param":{"num_deleted":"0","num_feature":"408","num_nodes":"11","size_leaf_vector":"1"}},{"base_weights":[-0E0,8.845178E-1,-4.6003348E-1,1.087418E0,-1.3933625E-2,-7.262753E-1,6.78624E-1,-0E0,2.4824517E-2,-1.7600445E-2,1.4759317E-2,-1.1974706E-2,2.322752E-2],"categories":[],"categories_nodes":[],"categories_segments":[],"categories_sizes":[],"default_left":[0,0,0,0,0,0,0,0,0,0,0,0,0],"id":44,"left_children":[1,3,5,7,-1,9,11,-1,-1,-1,-1,-1,-1],"loss_changes":[5.012832E1,1.5221302E1,2.5620678E1,6.8091965E0,0E0,1.6480003E1,1.1577165E1,0E0,0E0,0E0,0E0,0E0,0E0],"parents":[2147483647,0,0,1,1,2,2,3,3,5,5,6,6],"right_children":[2,4,6,8,-1,10,12,-1,-1,-1,-1,-1,-1],"split_conditions":[1.3020099E0,1.0320121E2,1.7830286E2,1.1157424E2,-1.3933625E-2,1.7444632E2,1.441753E0,-0E0,2.4824517E-2,-1.7600445E-2,1.4759317E-2,-1.1974706E-2,2.322752E-2],"split_indices":[371,270,398,101,0,3,407,0,0,0,0,0,0],"split_type":[0,0,0,0,0,0,0,0,0,0,0,0,0],"sum_hessian":[1.1929489E2,4.0112495E1,7.9182396E1,3.638441E1,3.7280822E0,6.511954E1,1.4062862E1,4.5037775E0,3.1880634E1,5.996283E1,5.156706E0,3.4412081E0,1.0621654E1],"tree_param":{"num_deleted":"0","num_feature":"408","num_nodes":"13","size_leaf_vector":"1"}},{"base_weights":[-4.6088185E-2,1.1153404E0,-3.9191115E-1,-0E0,2.407412E-2,-7.016706E-1,5.021977E-1,-1.938655E-2,3.296139E-3,2.128836E-2,-6.303558E-3],"categories":[],"categories_nodes":[],"categories_segments":[],"categories_sizes":[],"default_left":[0,0,0,0,0,0,0,0,0,0,0],"id":45,"left_children":[1,3,5,-1,-1,7,9,-1,-1,-1,-1],"loss_changes":[5.035087E1,2.8124542E0,2.7787544E1,0E0,0E0,1.7792793E1,1.2910341E1,0E0,0E0,0E0,0E0],"parents":[2147483647,0,0,1,1,2,2,5,5,6,6],"right_children":[2,4,6,-1,-1,8,10,-1,-1,-1,-1],"split_conditions":[1.1965017E2,7.250636E1,1.0344639E0,-0E0,2.407412E-2,1.7004948E2,7.9262173E-1,-1.938655E-2,3.296139E-3,2.128836E-2,-6.303558E-3],"split_indices":[25,67,140,0,0,39,69,0,0,0,0],"split_type":[0,0,0,0,0,0,0,0,0,0,0],"sum_hessian":[1.2208446E2,2.6658176E1,9.5426285E1,2.1121392E0,2.4546038E1,7.1607796E1,2.3818483E1,5.4967773E1,1.6640024E1,1.4116136E1,9.702349E0],"tree_param":{"num_deleted":"0","num_feature":"408","num_nodes":"11","size_leaf_vector":"1"}},{"base_weights":[1.8962676E-2,8.721348E-1,-4.1708508E-1,1.074418E0,-1.433446E-2,-7.772367E-1,4.1525227E-1,-3.040035E-3,2.4954451E-2,-2.0066205E-2,1.3899727E-2,-1.5757397E-2,1.640992E-2],"categories":[],"categories_nodes":[],"categories_segments":[],"categories_sizes":[],"default_left":[0,0,0,0,0,0,0,0,0,0,0,0,0],"id":46,"left_children":[1,3,5,7,-1,9,11,-1,-1,-1,-1,-1,-1],"loss_changes":[4.8080383E1,1.5821625E1,2.6244984E1,9.429565E0,0E0,2.1618607E1,1.4226299E1,0E0,0E0,0E0,0E0,0E0,0E0],"parents":[2147483647,0,0,1,1,2,2,3,3,5,5,6,6],"right_children":[2,4,6,8,-1,10,12,-1,-1,-1,-1,-1,-1],"split_conditions":[1.3020099E0,1.0320121E2,1.035218E0,1.06789215E2,-1.433446E-2,1.7585985E2,1.1505435E2,-3.040035E-3,2.4954451E-2,-2.0066205E-2,1.3899727E-2,-1.5757397E-2,1.640992E-2],"split_indices":[371,270,116,5,0,15,64,0,0,0,0,0,0],"split_type":[0,0,0,0,0,0,0,0,0,0,0,0,0],"sum_hessian":[1.2467295E2,4.1878956E1,8.2794E1,3.8002922E1,3.8760364E0,5.8300526E1,2.449347E1,4.3784966E0,3.3624424E1,5.1386314E1,6.914213E0,5.3847036E0,1.9108765E1],"tree_param":{"num_deleted":"0","num_feature":"408","num_nodes":"13","size_leaf_vector":"1"}},{"base_weights":[-1.5445953E-2,-6.527703E-1,5.8013344E-1,8.861036E-1,-9.184485E-1,8.5648113E-1,-6.355751E-1,-0E0,2.1020183E-2,1.9079021E-3,-2.1706615E-2,5.1503174E-4,2.3291035E-2,-2.2137E-2,5.378151E-3],"categories":[],"categories_nodes":[],"categories_segments":[],"categories_sizes":[],"default_left":[0,0,0,0,0,0,0,0,0,0,0,0,0,0,0],"id":47,"left_children":[1,3,5,7,9,11,13,-1,-1,-1,-1,-1,-1,-1,-1],"loss_changes":[4.8479435E1,2.7006184E1,2.323617E1,1.937571E0,9.865528E0,1.3326622E1,6.539378E0,0E0,0E0,0E0,0E0,0E0,0E0,0E0,0E0],"parents":[2147483647,0,0,1,1,2,2,3,3,4,4,5,5,6,6],"right_children":[2,4,6,8,10,12,14,-1,-1,-1,-1,-1,-1,-1,-1],"split_conditions":[1.1741104E2,1.2464987E0,7.700866E-1,1.3646194E2,7.166592E1,7.6556396E-1,1.769884E2,-0E0,2.1020183E-2,1.9079021E-3,-2.1706615E-2,5.1503174E-4,2.3291035E-2,-2.2137E-2,5.378151E-3],"split_indices":[173,311,57,27,270,140,398,0,0,0,0,0,0,0,0],"split_type":[0,0,0,0,0,0,0,0,0,0,0,0,0,0,0],"sum_hessian":[1.2362852E2,6.003406E1,6.3594456E1,7.873916E0,5.2160145E1,5.2632587E1,1.0961869E1,1.1013387E0,6.7725773E0,7.0698647E0,4.509028E1,1.5263606E1,3.736898E1,7.2760534E0,3.6858153E0],"tree_param":{"num_deleted":"0","num_feature":"408","num_nodes":"15","size_leaf_vector":"1"}},{"base_weights":[6.90735E-3,-7.138675E-1,5.6222874E-1,-1.0655946E0,2.460286E-1,-5.4600275E-1,8.705304E-1,9.321625E-3,-2.3533728E-2,-7.216667E-3,1.8498382E-2,-1.840447E-2,1.2441721E-2,-4.9249274E-3,2.2445554E-2],"categories":[],"categories_nodes":[],"categories_segments":[],"categories_sizes":[],"default_left":[0,0,0,0,0,0,0,0,0,0,0,0,0,0,0],"id":48,"left_children":[1,3,5,7,9,11,13,-1,-1,-1,-1,-1,-1,-1,-1],"loss_changes":[4.951323E1,1.9007248E1,2.5151165E1,8.246906E0,7.3760133E0,8.370409E0,1.678175E1,0E0,0E0,0E0,0E0,0E0,0E0,0E0,0E0],"parents":[2147483647,0,0,1,1,2,2,3,3,4,4,5,5,6,6],"right_children":[2,4,6,8,10,12,14,-1,-1,-1,-1,-1,-1,-1,-1],"split_conditions":[1.1636357E2,1.7054712E2,1.5502333E2,1.1030055E0,1.6190706E2,1.2823448E2,1.1963512E2,9.321625E-3,-2.3533728E-2,-7.216667E-3,1.8498382E-2,-1.840447E-2,1.2441721E-2,-4.9249274E-3,2.2445554E-2],"split_indices":[5,134,111,178,363,244,386,0,0,0,0,0,0,0,0],"split_type":[0,0,0,0,0,0,0,0,0,0,0,0,0,0,0],"sum_hessian":[1.1988609E2,5.153077E1,6.835532E1,3.7932228E1,1.3598541E1,1.4188626E1,5.41667E1,1.8286119E0,3.6103615E1,7.286033E0,6.3125086E0,1.1391555E1,2.797071E0,9.606938E0,4.455976E1],"tree_param":{"num_deleted":"0","num_feature":"408","num_nodes":"15","size_leaf_vector":"1"}},{"base_weights":[-1.8586117E-3,1.1219611E0,-3.1246307E-1,2.4199234E-2,-1.754656E-3,-1.1023852E0,9.492109E-2,2.6318072E-3,-2.3299515E-2,-9.885801E-3,1.3910417E-2],"categories":[],"categories_nodes":[],"categories_segments":[],"categories_sizes":[],"default_left":[0,0,0,0,0,0,0,0,0,0,0],"id":49,"left_children":[1,3,5,-1,-1,7,9,-1,-1,-1,-1],"loss_changes":[4.4285942E1,3.6876297E0,3.3101177E1,0E0,0E0,3.5127106E0,2.479018E1,0E0,0E0,0E0,0E0],"parents":[2147483647,0,0,1,1,2,2,5,5,6,6],"right_children":[2,4,6,-1,-1,8,10,-1,-1,-1,-1],"split_conditions":[1.11911E0,1.647517E2,7.720813E-1,2.4199234E-2,-1.754656E-3,1.334818E0,1.18777916E2,2.6318072E-3,-2.3299515E-2,-9.885801E-3,1.3910417E-2],"split_indices":[166,253,140,0,0,406,16,0,0,0,0],"split_type":[0,0,0,0,0,0,0,0,0,0,0],"sum_hessian":[1.24021645E2,2.5375313E1,9.864633E1,2.4039421E1,1.3358911E0,3.2821136E1,6.5825195E1,1.0923423E0,3.1728794E1,3.2986095E1,3.28391E1],"tree_param":{"num_deleted":"0","num_feature":"408","num_nodes":"11","size_leaf_vector":"1"}},{"base_weights":[-2.2640388E-2,-7.0529896E-1,5.296432E-1,-1.0028008E0,3.5475728E-1,-4.391503E-1,8.607705E-1,1.0442536E-3,-2.2629539E-2,2.1888241E-2,-6.197391E-3,1.5583346E-2,-1.7718414E-2,-1.0123109E-2,2.0467257E-2],"categories":[],"categories_nodes":[],"categories_segments":[],"categories_sizes":[],"default_left":[0,0,0,0,0,0,0,0,0,0,0,0,0,0,0],"id":50,"left_children":[1,3,5,7,9,11,13,-1,-1,-1,-1,-1,-1,-1,-1],"loss_changes":[4.6985004E1,1.8697695E1,2.2909864E1,6.715534E0,7.649147E0,1.1429472E1,1.2860222E1,0E0,0E0,0E0,0E0,0E0,0E0,0E0,0E0],"parents":[2147483647,0,0,1,1,2,2,3,3,4,4,5,5,6,6],"right_children":[2,4,6,8,10,12,14,-1,-1,-1,-1,-1,-1,-1,-1],"split_conditions":[1.1704506E2,1.7075179E2,1.1701895E2,1.2973222E0,7.359138E-1,1.310217E0,7.1036804E1,1.0442536E-3,-2.2629539E-2,2.1888241E-2,-6.197391E-3,1.5583346E-2,-1.7718414E-2,-1.0123109E-2,2.0467257E-2],"split_indices":[173,99,64,347,93,406,30,0,0,0,0,0,0,0,0],"split_type":[0,0,0,0,0,0,0,0,0,0,0,0,0,0,0],"sum_hessian":[1.20407104E2,5.400483E1,6.640228E1,4.262261E1,1.1382222E1,1.6363737E1,5.0038544E1,4.3401933E0,3.8282413E1,5.1309934E0,6.251229E0,3.6911197E0,1.2672617E1,4.5431027E0,4.549544E1],"tree_param":{"num_deleted":"0","num_feature":"408","num_nodes":"15","size_leaf_vector":"1"}},{"base_weights":[3.1345468E-2,-5.8510166E-1,5.754639E-1,7.13984E-1,-8.111132E-1,-5.3852916E-2,1.0621092E0,-5.336485E-3,1.9938217E-2,-1.869081E-2,1.1845541E-2,1.9860705E-2,-9.802411E-3,-5.8315103E-3,2.2690274E-2],"categories":[],"categories_nodes":[],"categories_segments":[],"categories_sizes":[],"default_left":[0,0,0,0,0,0,0,0,0,0,0,0,0,0,0],"id":51,"left_children":[1,3,5,7,9,11,13,-1,-1,-1,-1,-1,-1,-1,-1],"loss_changes":[4.1220688E1,1.801389E1,2.0725988E1,3.455284E0,9.94318E0,1.4463203E1,4.765358E0,0E0,0E0,0E0,0E0,0E0,0E0,0E0,0E0],"parents":[2147483647,0,0,1,1,2,2,3,3,4,4,5,5,6,6],"right_children":[2,4,6,8,10,12,14,-1,-1,-1,-1,-1,-1,-1,-1],"split_conditions":[1.1741104E2,1.2226284E2,1.24827225E2,7.250636E1,5.750304E-1,9.49987E-1,7.127993E1,-5.336485E-3,1.9938217E-2,-1.869081E-2,1.1845541E-2,1.9860705E-2,-9.802411E-3,-5.8315103E-3,2.2690274E-2],"split_indices":[173,301,386,67,21,395,102,0,0,0,0,0,0,0,0],"split_type":[0,0,0,0,0,0,0,0,0,0,0,0,0,0,0],"sum_hessian":[1.1889937E2,5.524321E1,6.3656155E1,7.2189856E0,4.8024223E1,2.8086578E1,3.5569576E1,1.2460285E0,5.972957E0,4.5083595E1,2.940629E0,7.1737103E0,2.0912868E1,1.1479319E0,3.4421646E1],"tree_param":{"num_deleted":"0","num_feature":"408","num_nodes":"15","size_leaf_vector":"1"}},{"base_weights":[-3.5886694E-2,9.113666E-1,-4.1450965E-1,-8.350949E-3,1.1042148E0,-7.5064915E-1,4.887875E-1,-0E0,2.2985445E-2,-1.8725883E-2,7.0060706E-3,-1.8625928E-2,2.3046548E-2],"categories":[],"categories_nodes":[],"categories_segments":[],"categories_sizes":[],"default_left":[0,0,0,0,0,0,0,0,0,0,0,0,0],"id":52,"left_children":[1,3,5,-1,7,9,11,-1,-1,-1,-1,-1,-1],"loss_changes":[4.2961067E1,9.991922E0,2.7074501E1,0E0,1.594284E0,1.4050556E1,2.5077234E1,0E0,0E0,0E0,0E0,0E0,0E0],"parents":[2147483647,0,0,1,1,2,2,4,4,5,5,6,6],"right_children":[2,4,6,-1,8,10,12,-1,-1,-1,-1,-1,-1],"split_conditions":[1.2526484E0,1.4364122E2,1.5289468E2,-8.350949E-3,1.2595278E2,1.7448666E2,1.5470021E2,-0E0,2.2985445E-2,-1.8725883E-2,7.0060706E-3,-1.8625928E-2,2.3046548E-2],"split_indices":[143,110,384,0,302,75,51,0,0,0,0,0,0],"split_type":[0,0,0,0,0,0,0,0,0,0,0,0,0],"sum_hessian":[1.1637093E2,3.205067E1,8.432027E1,3.4378014E0,2.861287E1,6.2102047E1,2.2218218E1,1.1462799E0,2.7466589E1,5.378584E1,8.316211E0,6.578521E0,1.5639698E1],"tree_param":{"num_deleted":"0","num_feature":"408","num_nodes":"13","size_leaf_vector":"1"}},{"base_weights":[1.4657386E-2,1.0929735E0,-2.837351E-1,-0E0,2.3693835E-2,-5.735467E-1,8.2939214E-1,-2.1890225E-2,-2.8874353E-3,-7.0562367E-3,2.3752555E-2],"categories":[],"categories_nodes":[],"categories_segments":[],"categories_sizes":[],"default_left":[0,0,0,0,0,0,0,0,0,0,0],"id":53,"left_children":[1,3,5,-1,-1,7,9,-1,-1,-1,-1],"loss_changes":[3.9017086E1,2.3704948E0,3.1053493E1,0E0,0E0,1.6032225E1,9.648926E0,0E0,0E0,0E0,0E0],"parents":[2147483647,0,0,1,1,2,2,5,5,6,6],"right_children":[2,4,6,-1,-1,8,10,-1,-1,-1,-1],"split_conditions":[1.1662344E2,1.099134E2,1.7830286E2,-0E0,2.3693835E-2,1.5657823E2,1.1275702E2,-2.1890225E-2,-2.8874353E-3,-7.0562367E-3,2.3752555E-2],"split_indices":[1,329,398,0,0,51,161,0,0,0,0],"split_type":[0,0,0,0,0,0,0,0,0,0,0],"sum_hessian":[1.160758E2,2.4367525E1,9.170827E1,2.235688E0,2.2131838E1,7.3889275E1,1.7818995E1,3.1448805E1,4.244047E1,3.8263412E0,1.3992653E1],"tree_param":{"num_deleted":"0","num_feature":"408","num_nodes":"11","size_leaf_vector":"1"}},{"base_weights":[-6.5902695E-3,1.1092387E0,-3.1088662E-1,2.3631217E-2,-5.811523E-4,-6.61947E-1,5.704659E-1,-1.8926356E-2,8.131418E-3,-1.6505305E-2,2.4866898E-2],"categories":[],"categories_nodes":[],"categories_segments":[],"categories_sizes":[],"default_left":[0,0,0,0,0,0,0,0,0,0,0],"id":54,"left_children":[1,3,5,-1,-1,7,9,-1,-1,-1,-1],"loss_changes":[4.04166E1,2.7366104E0,3.0123203E1,0E0,0E0,2.203723E1,2.8242094E1,0E0,0E0,0E0,0E0],"parents":[2147483647,0,0,1,1,2,2,5,5,6,6],"right_children":[2,4,6,-1,-1,8,10,-1,-1,-1,-1],"split_conditions":[1.1048363E0,1.68154E2,1.5289468E2,2.3631217E-2,-5.811523E-4,1.7208351E2,1.3254805E2,-1.8926356E-2,8.131418E-3,-1.6505305E-2,2.4866898E-2],"split_indices":[142,37,384,0,0,134,3,0,0,0,0],"split_type":[0,0,0,0,0,0,0,0,0,0,0],"sum_hessian":[1.1617683E2,2.3408003E1,9.276882E1,2.235115E1,1.0568514E0,6.710482E1,2.5664001E1,5.3549934E1,1.3554885E1,7.9589653E0,1.7705036E1],"tree_param":{"num_deleted":"0","num_feature":"408","num_nodes":"11","size_leaf_vector":"1"}},{"base_weights":[-4.8562393E-2,8.470467E-1,-4.448287E-1,-2.8298294E-2,1.1412307E0,-8.8705724E-1,1.7517905E-1,1.6382433E-2,-1.7477168E-2,-0E0,2.4094442E-2,-2.268955E-2,4.7910884E-3,1.3291427E-2,-2.0024428E-2],"categories":[],"categories_nodes":[],"categories_segments":[],"categories_sizes":[],"default_left":[0,0,0,0,0,0,0,0,0,0,0,0,0,0,0],"id":55,"left_children":[1,3,5,7,9,11,13,-1,-1,-1,-1,-1,-1,-1,-1],"loss_changes":[4.2854897E1,1.0113815E1,2.3789341E1,9.195276E0,2.4334526E0,1.4934917E1,2.206601E1,0E0,0E0,0E0,0E0,0E0,0E0,0E0,0E0],"parents":[2147483647,0,0,1,1,2,2,3,3,4,4,5,5,6,6],"right_children":[2,4,6,8,10,12,14,-1,-1,-1,-1,-1,-1,-1,-1],"split_conditions":[1.3714561E2,1.2678856E2,1.5848857E2,1.5056309E1,7.195043E1,1.2133123E0,9.960445E-1,1.6382433E-2,-1.7477168E-2,-0E0,2.4094442E-2,-2.268955E-2,4.7910884E-3,1.3291427E-2,-2.0024428E-2],"split_indices":[157,400,0,372,331,140,93,0,0,0,0,0,0,0,0],"split_type":[0,0,0,0,0,0,0,0,0,0,0,0,0,0,0],"sum_hessian":[1.17195435E2,3.48633E1,8.233213E1,8.7967E0,2.60666E1,4.8023647E1,3.4308487E1,4.129414E0,4.6672854E0,1.2037115E0,2.4862888E1,3.972853E1,8.295116E0,2.514369E1,9.164795E0],"tree_param":{"num_deleted":"0","num_feature":"408","num_nodes":"15","size_leaf_vector":"1"}},{"base_weights":[-2.7897857E-2,-3.5366064E-1,9.8187846E-1,-6.58277E-1,7.15934E-1,2.3022074E-2,-1.1674091E-2,-1.6821371E-2,1.3875293E-2,1.9679775E-2,-1.0303704E-2],"categories":[],"categories_nodes":[],"categories_segments":[],"categories_sizes":[],"default_left":[0,0,0,0,0,0,0,0,0,0,0],"id":56,"left_children":[1,3,5,7,9,-1,-1,-1,-1,-1,-1],"loss_changes":[3.8172447E1,2.981663E1,9.093014E0,1.8652105E1,7.933584E0,0E0,0E0,0E0,0E0,0E0,0E0],"parents":[2147483647,0,0,1,1,2,2,3,3,4,4],"right_children":[2,4,6,8,10,-1,-1,-1,-1,-1,-1],"split_conditions":[1.2518324E2,1.6358972E2,1.147471E2,1.7321819E2,1.7632156E2,2.3022074E-2,-1.1674091E-2,-1.6821371E-2,1.3875293E-2,1.9679775E-2,-1.0303704E-2],"split_indices":[197,363,55,87,267,0,0,0,0,0,0],"split_type":[0,0,0,0,0,0,0,0,0,0,0],"sum_hessian":[1.12887764E2,8.6709274E1,2.6178493E1,6.845122E1,1.8258059E1,2.4390917E1,1.7875775E0,6.1290592E1,7.1606236E0,1.5656692E1,2.6013656E0],"tree_param":{"num_deleted":"0","num_feature":"408","num_nodes":"11","size_leaf_vector":"1"}},{"base_weights":[4.2669903E-2,1.0888898E0,-2.37975E-1,2.3490783E-2,-2.8827558E-3,-8.042707E-1,2.8649184E-1,-1.9323803E-2,9.220131E-3,1.4116739E-2,-1.6830463E-2],"categories":[],"categories_nodes":[],"categories_segments":[],"categories_sizes":[],"default_left":[0,0,0,0,0,0,0,0,0,0,0],"id":57,"left_children":[1,3,5,-1,-1,7,9,-1,-1,-1,-1],"loss_changes":[3.5133766E1,3.532507E0,2.8364773E1,0E0,0E0,1.0514109E1,2.4459768E1,0E0,0E0,0E0,0E0],"parents":[2147483647,0,0,1,1,2,2,5,5,6,6],"right_children":[2,4,6,-1,-1,8,10,-1,-1,-1,-1],"split_conditions":[1.11911E0,1.6948868E2,1.5617184E2,2.3490783E-2,-2.8827558E-3,1.7403105E2,9.4274694E-1,-1.9323803E-2,9.220131E-3,1.4116739E-2,-1.6830463E-2],"split_indices":[166,13,228,0,0,27,81,0,0,0,0],"split_type":[0,0,0,0,0,0,0,0,0,0,0],"sum_hessian":[1.14444664E2,2.3364717E1,9.107995E1,2.2315033E1,1.0496864E0,4.3738945E1,4.7341E1,3.95461E1,4.1928463E0,3.538007E1,1.1960927E1],"tree_param":{"num_deleted":"0","num_feature":"408","num_nodes":"11","size_leaf_vector":"1"}},{"base_weights":[1.002452E-3,-5.9917116E-1,5.131959E-1,5.579226E-1,-9.025365E-1,-1.821108E-1,9.2888045E-1,-8.623286E-3,1.9676821E-2,-2.0523436E-2,2.4782706E-3,-1.5808657E-2,1.9197995E-2,2.345648E-2,-0E0],"categories":[],"categories_nodes":[],"categories_segments":[],"categories_sizes":[],"default_left":[0,0,0,0,0,0,0,0,0,0,0,0,0,0,0],"id":58,"left_children":[1,3,5,7,9,11,13,-1,-1,-1,-1,-1,-1,-1,-1],"loss_changes":[3.5045807E1,1.9471376E1,1.864128E1,6.0611696E0,6.0852966E0,1.8406275E1,8.996719E0,0E0,0E0,0E0,0E0,0E0,0E0,0E0,0E0],"parents":[2147483647,0,0,1,1,2,2,3,3,4,4,5,5,6,6],"right_children":[2,4,6,8,10,12,14,-1,-1,-1,-1,-1,-1,-1,-1],"split_conditions":[1.1704506E2,1.3882278E2,1.7657704E2,4.2954198E-1,1.7326787E2,1.4849002E2,1.717605E1,-8.623286E-3,1.9676821E-2,-2.0523436E-2,2.4782706E-3,-1.5808657E-2,1.9197995E-2,2.345648E-2,-0E0],"split_indices":[173,349,399,189,87,401,374,0,0,0,0,0,0,0,0],"split_type":[0,0,0,0,0,0,0,0,0,0,0,0,0,0,0],"sum_hessian":[1.10144615E2,5.011061E1,6.0034E1,9.717978E0,4.0392635E1,2.243254E1,3.7601463E1,2.564354E0,7.153624E0,3.6485622E1,3.907012E0,1.5323574E1,7.1089654E0,2.938139E1,8.220073E0],"tree_param":{"num_deleted":"0","num_feature":"408","num_nodes":"15","size_leaf_vector":"1"}},{"base_weights":[9.469294E-3,-7.028254E-1,5.025012E-1,1.47005115E-2,-8.640734E-1,-3.195599E-1,8.075838E-1,-2.0265115E-2,9.48901E-3,1.4059774E-2,-1.7709501E-2,-1.2418777E-2,2.0455142E-2],"categories":[],"categories_nodes":[],"categories_segments":[],"categories_sizes":[],"default_left":[0,0,0,0,0,0,0,0,0,0,0,0,0],"id":59,"left_children":[1,3,5,-1,7,9,11,-1,-1,-1,-1,-1,-1],"loss_changes":[4.1613388E1,1.250588E1,1.8462881E1,0E0,1.0127983E1,1.2964577E1,1.7605804E1,0E0,0E0,0E0,0E0,0E0,0E0],"parents":[2147483647,0,0,1,1,2,2,4,4,5,5,6,6],"right_children":[2,4,6,-1,8,10,12,-1,-1,-1,-1,-1,-1],"split_conditions":[1.15940315E2,8.906069E1,1.1828522E2,1.47005115E-2,1.7542554E2,1.197499E0,1.2805872E2,-2.0265115E-2,9.48901E-3,1.4059774E-2,-1.7709501E-2,-1.2418777E-2,2.0455142E-2],"split_indices":[5,289,28,0,27,395,207,0,0,0,0,0,0],"split_type":[0,0,0,0,0,0,0,0,0,0,0,0,0],"sum_hessian":[1.1476844E2,4.618243E1,6.8586006E1,3.6265852E0,4.2555843E1,1.8094805E1,5.0491203E1,3.9061844E1,3.4940016E0,5.959203E0,1.2135602E1,5.811801E0,4.46794E1],"tree_param":{"num_deleted":"0","num_feature":"408","num_nodes":"13","size_leaf_vector":"1"}},{"base_weights":[1.1342325E-2,-6.00124E-1,4.9454543E-1,7.1843624E-1,-8.1774884E-1,7.0917076E-1,-5.637737E-1,1.841353E-2,-6.558972E-4,1.351536E-2,-1.823092E-2,-5.93364E-4,2.2317993E-2,1.1544203E-2,-1.825804E-2],"categories":[],"categories_nodes":[],"categories_segments":[],"categories_sizes":[],"default_left":[0,0,0,0,0,0,0,0,0,0,0,0,0,0,0],"id":60,"left_children":[1,3,5,7,9,11,13,-1,-1,-1,-1,-1,-1,-1,-1],"loss_changes":[3.505054E1,1.6147177E1,1.6044386E1,1.7359114E0,7.7795296E0,1.7681736E1,5.9953485E0,0E0,0E0,0E0,0E0,0E0,0E0,0E0,0E0],"parents":[2147483647,0,0,1,1,2,2,3,3,4,4,5,5,6,6],"right_children":[2,4,6,8,10,12,14,-1,-1,-1,-1,-1,-1,-1,-1],"split_conditions":[1.1704506E2,1.2091395E0,9.1700864E-1,1.5303823E-1,9.148684E1,7.8464746E-1,1.2241736E2,1.841353E-2,-6.558972E-4,1.351536E-2,-1.823092E-2,-5.93364E-4,2.2317993E-2,1.1544203E-2,-1.825804E-2],"split_indices":[173,311,81,380,280,176,60,0,0,0,0,0,0,0,0],"split_type":[0,0,0,0,0,0,0,0,0,0,0,0,0,0,0],"sum_hessian":[1.1479911E2,5.0003628E1,6.479548E1,6.1063013E0,4.3897327E1,5.481197E1,9.98351E0,4.980068E0,1.1262331E0,1.5456965E0,4.235163E1,1.9682585E1,3.5129387E1,1.697431E0,8.286078E0],"tree_param":{"num_deleted":"0","num_feature":"408","num_nodes":"15","size_leaf_vector":"1"}},{"base_weights":[1.9073559E-2,-2.8377044E-1,1.0987444E0,-5.705925E-1,7.7915E-1,2.3186525E-2,-0E0,-1.754306E-2,1.9819825E-3,-7.3736534E-3,2.0187978E-2],"categories":[],"categories_nodes":[],"categories_segments":[],"categories_sizes":[],"default_left":[0,0,0,0,0,0,0,0,0,0,0],"id":61,"left_children":[1,3,5,7,9,-1,-1,-1,-1,-1,-1],"loss_changes":[3.8048016E1,2.8113317E1,2.1526508E0,1.5368422E1,6.2245064E0,0E0,0E0,0E0,0E0,0E0,0E0],"parents":[2147483647,0,0,1,1,2,2,3,3,4,4],"right_children":[2,4,6,8,10,-1,-1,-1,-1,-1,-1],"split_conditions":[1.4042061E2,1.7830286E2,1.06920525E2,1.6953038E2,7.730215E1,2.3186525E-2,-0E0,-1.754306E-2,1.9819825E-3,-7.3736534E-3,2.0187978E-2],"split_indices":[401,398,199,111,331,0,0,0,0,0,0],"split_type":[0,0,0,0,0,0,0,0,0,0,0],"sum_hessian":[1.1121142E2,8.7639946E1,2.3571472E1,7.0116295E1,1.7523647E1,2.25704E1,1.001073E0,4.818568E1,2.1930616E1,2.3641078E0,1.5159539E1],"tree_param":{"num_deleted":"0","num_feature":"408","num_nodes":"11","size_leaf_vector":"1"}},{"base_weights":[-2.3629539E-2,1.0404876E0,-3.120542E-1,-6.482975E-4,2.27166E-2,-5.910643E-1,5.3255814E-1,-1.6432935E-2,1.5272864E-2,-1.3606817E-2,1.673024E-2],"categories":[],"categories_nodes":[],"categories_segments":[],"categories_sizes":[],"default_left":[0,0,0,0,0,0,0,0,0,0,0],"id":62,"left_children":[1,3,5,-1,-1,7,9,-1,-1,-1,-1],"loss_changes":[3.5259056E1,3.1204357E0,2.2235516E1,0E0,0E0,2.3217918E1,9.821966E0,0E0,0E0,0E0,0E0],"parents":[2147483647,0,0,1,1,2,2,5,5,6,6],"right_children":[2,4,6,-1,-1,8,10,-1,-1,-1,-1],"split_conditions":[1.12379036E2,1.7252841E2,1.6275652E2,-6.482975E-4,2.27166E-2,1.3024748E2,1.1144121E2,-1.6432935E-2,1.5272864E-2,-1.3606817E-2,1.673024E-2],"split_indices":[289,398,363,0,0,40,16,0,0,0,0],"split_type":[0,0,0,0,0,0,0,0,0,0,0],"sum_hessian":[1.1195205E2,2.2391623E1,8.956043E1,1.5071541E0,2.0884468E1,6.82177E1,2.1342728E1,5.9283257E1,8.9344425E0,3.4508493E0,1.789188E1],"tree_param":{"num_deleted":"0","num_feature":"408","num_nodes":"11","size_leaf_vector":"1"}},{"base_weights":[1.2143782E-3,-3.148802E-1,9.4822997E-1,-7.795597E-1,3.3757845E-1,2.2139544E-2,-1.0784019E-2,-1.9043561E-2,8.301911E-3,-1.3343549E-2,1.47336405E-2],"categories":[],"categories_nodes":[],"categories_segments":[],"categories_sizes":[],"default_left":[0,0,0,0,0,0,0,0,0,0,0],"id":63,"left_children":[1,3,5,7,9,-1,-1,-1,-1,-1,-1],"loss_changes":[3.2980064E1,2.5432348E1,8.018694E0,1.1082218E1,1.4978557E1,0E0,0E0,0E0,0E0,0E0,0E0],"parents":[2147483647,0,0,1,1,2,2,3,3,4,4],"right_children":[2,4,6,8,10,-1,-1,-1,-1,-1,-1],"split_conditions":[1.2518324E2,1.773849E2,1.1504042E2,1.7326787E2,7.595798E1,2.2139544E-2,-1.0784019E-2,-1.9043561E-2,8.301911E-3,-1.3343549E-2,1.47336405E-2],"split_indices":[197,398,67,87,126,0,0,0,0,0,0],"split_type":[0,0,0,0,0,0,0,0,0,0,0],"sum_hessian":[1.0512079E2,7.941927E1,2.5701511E1,4.6604435E1,3.281484E1,2.3988976E1,1.7125355E0,4.1440998E1,5.163439E0,8.590868E0,2.422397E1],"tree_param":{"num_deleted":"0","num_feature":"408","num_nodes":"11","size_leaf_vector":"1"}},{"base_weights":[-4.408924E-3,1.0242063E0,-2.9947E-1,2.1847107E-2,-0E0,-8.427707E-1,1.4184777E-1,-2.1848945E-2,4.7413698E-5,1.5879821E-2,-1.02266325E-2],"categories":[],"categories_nodes":[],"categories_segments":[],"categories_sizes":[],"default_left":[0,0,0,0,0,0,0,0,0,0,0],"id":64,"left_children":[1,3,5,-1,-1,7,9,-1,-1,-1,-1],"loss_changes":[3.4003933E1,2.243763E0,2.1772064E1,0E0,0E0,9.073748E0,2.2231283E1,0E0,0E0,0E0,0E0],"parents":[2147483647,0,0,1,1,2,2,5,5,6,6],"right_children":[2,4,6,-1,-1,8,10,-1,-1,-1,-1],"split_conditions":[1.1965017E2,1.3456033E0,8.395123E-1,2.1847107E-2,-0E0,1.7209518E2,7.802615E-1,-2.1848945E-2,4.7413698E-5,1.5879821E-2,-1.02266325E-2],"split_indices":[25,155,164,0,0,63,69,0,0,0,0],"split_type":[0,0,0,0,0,0,0,0,0,0,0],"sum_hessian":[1.0921049E2,2.2864712E1,8.634577E1,2.17394E1,1.1253108E0,3.8393574E1,4.79522E1,2.9642725E1,8.750848E0,2.416243E1,2.3789774E1],"tree_param":{"num_deleted":"0","num_feature":"408","num_nodes":"11","size_leaf_vector":"1"}},{"base_weights":[-0E0,-5.859675E-1,4.9144614E-1,6.415244E-1,-7.8262293E-1,-4.9433237E-1,7.771873E-1,-2.5066864E-3,1.7874066E-2,-2.0023279E-2,9.542672E-3,-1.7619954E-2,8.921194E-3,2.0859834E-2,-6.3028573E-3],"categories":[],"categories_nodes":[],"categories_segments":[],"categories_sizes":[],"default_left":[0,0,0,0,0,0,0,0,0,0,0,0,0,0,0],"id":65,"left_children":[1,3,5,7,9,11,13,-1,-1,-1,-1,-1,-1,-1,-1],"loss_changes":[3.200746E1,1.3406736E1,1.778151E1,2.1170816E0,1.3684628E1,6.19936E0,1.48440075E1,0E0,0E0,0E0,0E0,0E0,0E0,0E0,0E0],"parents":[2147483647,0,0,1,1,2,2,3,3,4,4,5,5,6,6],"right_children":[2,4,6,8,10,12,14,-1,-1,-1,-1,-1,-1,-1,-1],"split_conditions":[1.1618663E2,1.0886637E2,1.5502333E2,7.4643684E1,1.7372995E2,1.7824672E2,9.4926447E-1,-2.5066864E-3,1.7874066E-2,-2.0023279E-2,9.542672E-3,-1.7619954E-2,8.921194E-3,2.0859834E-2,-6.3028573E-3],"split_indices":[5,289,111,54,27,398,93,0,0,0,0,0,0,0,0],"split_type":[0,0,0,0,0,0,0,0,0,0,0,0,0,0,0],"sum_hessian":[1.0698423E2,4.9086994E1,5.7897236E1,5.8024116E0,4.328458E1,1.2289578E1,4.560766E1,1.1942003E0,4.608211E0,3.7573772E1,5.710808E0,9.175044E0,3.1145346E0,3.712246E1,8.485199E0],"tree_param":{"num_deleted":"0","num_feature":"408","num_nodes":"15","size_leaf_vector":"1"}},{"base_weights":[5.579514E-2,-4.8456576E-1,5.259786E-1,5.248062E-1,-7.561221E-1,-3.4714693E-1,8.383374E-1,-5.919621E-3,1.6750637E-2,-1.8415308E-2,1.4171721E-2,-1.8154023E-2,1.2471195E-2,-1.2219782E-3,1.9887378E-2],"categories":[],"categories_nodes":[],"categories_segments":[],"categories_sizes":[],"default_left":[0,0,0,0,0,0,0,0,0,0,0,0,0,0,0],"id":66,"left_children":[1,3,5,7,9,11,13,-1,-1,-1,-1,-1,-1,-1,-1],"loss_changes":[2.900344E1,1.5351404E1,1.756748E1,3.8365433E0,1.1715168E1,1.0614204E1,7.0738335E0,0E0,0E0,0E0,0E0,0E0,0E0,0E0,0E0],"parents":[2147483647,0,0,1,1,2,2,3,3,4,4,5,5,6,6],"right_children":[2,4,6,8,10,12,14,-1,-1,-1,-1,-1,-1,-1,-1],"split_conditions":[1.1717527E2,1.3882278E2,1.1986776E2,1.5484406E2,1.7865504E2,1.3480107E2,7.669872E1,-5.919621E-3,1.6750637E-2,-1.8415308E-2,1.4171721E-2,-1.8154023E-2,1.2471195E-2,-1.2219782E-3,1.9887378E-2],"split_indices":[173,349,386,111,398,400,66,0,0,0,0,0,0,0,0],"split_type":[0,0,0,0,0,0,0,0,0,0,0,0,0,0,0],"sum_hessian":[1.10068054E2,5.0688934E1,5.937912E1,9.960279E0,4.0728653E1,1.516512E1,4.4213997E1,2.3363874E0,7.623892E0,3.7587643E1,3.1410115E0,1.002239E1,5.1427298E0,6.2423897E0,3.7971607E1],"tree_param":{"num_deleted":"0","num_feature":"408","num_nodes":"15","size_leaf_vector":"1"}},{"base_weights":[3.311084E-2,-2.652441E-1,9.74462E-1,-4.8794085E-1,9.3275106E-1,2.1800894E-2,-6.559832E-3,-1.4415441E-2,1.1338357E-2,2.2905525E-2,-5.8022686E-3],"categories":[],"categories_nodes":[],"categories_segments":[],"categories_sizes":[],"default_left":[0,0,0,0,0,0,0,0,0,0,0],"id":67,"left_children":[1,3,5,7,9,-1,-1,-1,-1,-1,-1],"loss_changes":[3.215469E1,2.3564249E1,5.2566967E0,1.9061728E1,4.6723404E0,0E0,0E0,0E0,0E0,0E0,0E0],"parents":[2147483647,0,0,1,1,2,2,3,3,4,4],"right_children":[2,4,6,8,10,-1,-1,-1,-1,-1,-1],"split_conditions":[1.2518324E2,1.7326787E2,1.05628654E2,4.253569E-1,1.7606886E2,2.1800894E-2,-6.559832E-3,-1.4415441E-2,1.1338357E-2,2.2905525E-2,-5.8022686E-3],"split_indices":[197,87,31,9,63,0,0,0,0,0,0],"split_type":[0,0,0,0,0,0,0,0,0,0,0],"sum_hessian":[1.0938468E2,8.3746956E1,2.5637728E1,7.1970955E1,1.1775999E1,2.4200203E1,1.4375244E0,5.986485E1,1.2106107E1,1.0488877E1,1.2871209E0],"tree_param":{"num_deleted":"0","num_feature":"408","num_nodes":"11","size_leaf_vector":"1"}},{"base_weights":[5.1057253E-2,1.0218525E0,-1.8816878E-1,2.2214226E-2,-2.3094036E-3,-9.561448E-1,1.7350933E-1,7.6391343E-3,-2.2294154E-2,-1.2715114E-2,1.1333198E-2],"categories":[],"categories_nodes":[],"categories_segments":[],"categories_sizes":[],"default_left":[0,0,0,0,0,0,0,0,0,0,0],"id":68,"left_children":[1,3,5,-1,-1,7,9,-1,-1,-1,-1],"loss_changes":[2.5847363E1,2.9820957E0,2.5110373E1,0E0,0E0,7.341318E0,2.0074606E1,0E0,0E0,0E0,0E0],"parents":[2147483647,0,0,1,1,2,2,5,5,6,6],"right_children":[2,4,6,-1,-1,8,10,-1,-1,-1,-1],"split_conditions":[1.11911E0,1.68702E2,7.720813E-1,2.2214226E-2,-2.3094036E-3,2.3452982E-2,1.1403925E2,7.6391343E-3,-2.2294154E-2,-1.2715114E-2,1.1333198E-2],"split_indices":[166,265,140,0,0,383,4,0,0,0,0],"split_type":[0,0,0,0,0,0,0,0,0,0,0],"sum_hessian":[1.058454E2,2.00457E1,8.57997E1,1.9044203E1,1.001497E0,2.686038E1,5.893932E1,2.2131023E0,2.4647278E1,1.845187E1,4.0487446E1],"tree_param":{"num_deleted":"0","num_feature":"408","num_nodes":"11","size_leaf_vector":"1"}},{"base_weights":[-2.830598E-2,9.0135896E-1,-3.4214923E-1,-4.127569E-3,2.1489603E-2,-8.1449354E-1,1.4788444E-1,-2.1346057E-2,7.5856303E-3,-1.6195206E-2,1.3581485E-2],"categories":[],"categories_nodes":[],"categories_segments":[],"categories_sizes":[],"default_left":[0,0,0,0,0,0,0,0,0,0,0],"id":69,"left_children":[1,3,5,-1,-1,7,9,-1,-1,-1,-1],"loss_changes":[3.1433598E1,6.064459E0,1.9445908E1,0E0,0E0,1.3932341E1,2.198724E1,0E0,0E0,0E0,0E0],"parents":[2147483647,0,0,1,1,2,2,5,5,6,6],"right_children":[2,4,6,-1,-1,8,10,-1,-1,-1,-1],"split_conditions":[1.2899126E2,1.41335E2,1.5661517E2,-4.127569E-3,2.1489603E-2,1.2688093E2,1.5470021E2,-2.1346057E-2,7.5856303E-3,-1.6195206E-2,1.3581485E-2],"split_indices":[193,98,0,0,0,148,51,0,0,0,0],"split_type":[0,0,0,0,0,0,0,0,0,0,0],"sum_hessian":[1.0457883E2,2.5047142E1,7.9531685E1,2.9430873E0,2.2104055E1,4.034203E1,3.918965E1,3.381224E1,6.5297923E0,1.3272127E1,2.5917524E1],"tree_param":{"num_deleted":"0","num_feature":"408","num_nodes":"11","size_leaf_vector":"1"}},{"base_weights":[5.0342888E-2,-5.1923496E-1,4.8250738E-1,-7.6215756E-1,5.9437656E-1,3.918166E-2,1.064431E0,1.140764E-2,-1.932291E-2,-8.510325E-3,2.3026526E-2,2.1811737E-2,-5.4381923E-3,2.3292601E-2,-3.965133E-3],"categories":[],"categories_nodes":[],"categories_segments":[],"categories_sizes":[],"default_left":[0,0,0,0,0,0,0,0,0,0,0,0,0,0,0],"id":70,"left_children":[1,3,5,7,9,11,13,-1,-1,-1,-1,-1,-1,-1,-1],"loss_changes":[2.7095932E1,1.3733475E1,1.5620189E1,1.2150209E1,6.563421E0,1.3538881E1,4.320772E0,0E0,0E0,0E0,0E0,0E0,0E0,0E0,0E0],"parents":[2147483647,0,0,1,1,2,2,3,3,4,4,5,5,6,6],"right_children":[2,4,6,8,10,12,14,-1,-1,-1,-1,-1,-1,-1,-1],"split_conditions":[1.1636357E2,1.7403105E2,1.692055E2,1.0890977E2,1.4083496E0,5.371701E-1,1.7019075E2,1.140764E-2,-1.932291E-2,-8.510325E-3,2.3026526E-2,2.1811737E-2,-5.4381923E-3,2.3292601E-2,-3.965133E-3],"split_indices":[5,27,111,289,47,93,253,0,0,0,0,0,0,0,0],"split_type":[0,0,0,0,0,0,0,0,0,0,0,0,0,0,0],"sum_hessian":[1.0611735E2,4.5107418E1,6.1009933E1,3.7916515E1,7.1909037E0,3.6328068E1,2.4681862E1,4.231439E0,3.3685078E1,2.3894832E0,4.80142E0,7.5173435E0,2.8810726E1,2.3378023E1,1.3038394E0],"tree_param":{"num_deleted":"0","num_feature":"408","num_nodes":"15","size_leaf_vector":"1"}},{"base_weights":[-2.4633195E-2,-3.7393972E-1,7.8682315E-1,-7.0442176E-1,2.827355E-1,9.94268E-1,-2.9088986E-1,1.068032E-2,-1.6732555E-2,-9.470996E-3,1.7755281E-2,-5.147386E-3,2.2073533E-2,-1.3442249E-2,7.397018E-3],"categories":[],"categories_nodes":[],"categories_segments":[],"categories_sizes":[],"default_left":[0,0,0,0,0,0,0,0,0,0,0,0,0,0,0],"id":71,"left_children":[1,3,5,7,9,11,13,-1,-1,-1,-1,-1,-1,-1,-1],"loss_changes":[3.0509577E1,1.712234E1,8.128786E0,9.509031E0,1.3125327E1,4.8041496E0,2.2492306E0,0E0,0E0,0E0,0E0,0E0,0E0,0E0,0E0],"parents":[2147483647,0,0,1,1,2,2,3,3,4,4,5,5,6,6],"right_children":[2,4,6,8,10,12,14,-1,-1,-1,-1,-1,-1,-1,-1],"split_conditions":[1.2215252E2,1.6117892E2,7.700866E-1,4.661272E-1,1.5580966E2,1.1034738E2,1.6963054E2,1.068032E-2,-1.6732555E-2,-9.470996E-3,1.7755281E-2,-5.147386E-3,2.2073533E-2,-1.3442249E-2,7.397018E-3],"split_indices":[173,363,57,105,15,244,243,0,0,0,0,0,0,0,0],"split_type":[0,0,0,0,0,0,0,0,0,0,0,0,0,0,0],"sum_hessian":[1.0428997E2,7.409075E1,3.019922E1,4.9696304E1,2.4394447E1,2.5843506E1,4.3557158E0,3.8423774E0,4.5853928E1,1.0667852E1,1.3726596E1,1.4926629E0,2.4350842E1,3.220128E0,1.1355877E0],"tree_param":{"num_deleted":"0","num_feature":"408","num_nodes":"15","size_leaf_vector":"1"}},{"base_weights":[1.9385193E-2,-2.4188642E-1,1.0002544E0,-5.6173456E-1,7.9126143E-1,2.187573E-2,-3.362827E-3,-1.4423418E-2,1.1251753E-2,-2.0484412E-3,2.1928543E-2],"categories":[],"categories_nodes":[],"categories_segments":[],"categories_sizes":[],"default_left":[0,0,0,0,0,0,0,0,0,0,0],"id":72,"left_children":[1,3,5,7,9,-1,-1,-1,-1,-1,-1],"loss_changes":[2.73152E1,2.810756E1,3.2898197E0,1.2488846E1,6.180052E0,0E0,0E0,0E0,0E0,0E0,0E0],"parents":[2147483647,0,0,1,1,2,2,3,3,4,4],"right_children":[2,4,6,8,10,-1,-1,-1,-1,-1,-1],"split_conditions":[1.4042061E2,1.7830286E2,7.1587086E-1,1.7444632E2,7.930966E1,2.187573E-2,-3.362827E-3,-1.4423418E-2,1.1251753E-2,-2.0484412E-3,2.1928543E-2],"split_indices":[401,398,45,3,331,0,0,0,0,0,0],"split_type":[0,0,0,0,0,0,0,0,0,0,0],"sum_hessian":[1.01218414E2,8.071548E1,2.0502935E1,6.270074E1,1.8014738E1,1.9497757E1,1.0051793E0,5.5931187E1,6.769554E0,4.506795E0,1.3507942E1],"tree_param":{"num_deleted":"0","num_feature":"408","num_nodes":"11","size_leaf_vector":"1"}},{"base_weights":[3.076611E-2,-3.5497573E-1,6.602434E-1,-8.0375934E-1,1.0274354E-1,8.170934E-1,-1.2118737E-2,8.582074E-3,-2.0053985E-2,-1.4213047E-2,9.817134E-3,-6.2543848E-3,1.9214263E-2],"categories":[],"categories_nodes":[],"categories_segments":[],"categories_sizes":[],"default_left":[0,0,0,0,0,0,0,0,0,0,0,0,0],"id":73,"left_children":[1,3,5,7,9,11,-1,-1,-1,-1,-1,-1,-1],"loss_changes":[2.6036453E1,1.4012943E1,9.230753E0,9.47543E0,1.1242686E1,7.03401E0,0E0,0E0,0E0,0E0,0E0,0E0,0E0],"parents":[2147483647,0,0,1,1,2,2,3,3,4,4,5,5],"right_children":[2,4,6,8,10,12,-1,-1,-1,-1,-1,-1,-1],"split_conditions":[1.19209656E2,1.64729E2,1.1017828E2,7.622227E1,1.1213858E2,1.310085E2,-1.2118737E-2,8.582074E-3,-2.0053985E-2,-1.4213047E-2,9.817134E-3,-6.2543848E-3,1.9214263E-2],"split_indices":[29,63,55,385,221,183,0,0,0,0,0,0,0],"split_type":[0,0,0,0,0,0,0,0,0,0,0,0,0],"sum_hessian":[1.02668175E2,6.370673E1,3.896145E1,3.195546E1,3.1751268E1,3.564955E1,3.311896E0,3.7692957E0,2.8186165E1,9.303306E0,2.2447962E1,3.3623948E0,3.228716E1],"tree_param":{"num_deleted":"0","num_feature":"408","num_nodes":"13","size_leaf_vector":"1"}},{"base_weights":[9.751772E-3,7.341793E-1,-3.2423308E-1,-3.5764995E-1,1.0054979E0,-6.830602E-1,5.587928E-1,-1.5355504E-2,8.747437E-3,-7.9258755E-3,2.2363078E-2,-1.7082594E-2,8.27112E-3,-1.472457E-2,2.2325916E-2],"categories":[],"categories_nodes":[],"categories_segments":[],"categories_sizes":[],"default_left":[0,0,0,0,0,0,0,0,0,0,0,0,0,0,0],"id":74,"left_children":[1,3,5,7,9,11,13,-1,-1,-1,-1,-1,-1,-1,-1],"loss_changes":[2.5705288E1,1.10327835E1,2.3545841E1,3.3867345E0,5.6534004E0,1.0736134E1,1.7296013E1,0E0,0E0,0E0,0E0,0E0,0E0,0E0,0E0],"parents":[2147483647,0,0,1,1,2,2,3,3,4,4,5,5,6,6],"right_children":[2,4,6,8,10,12,14,-1,-1,-1,-1,-1,-1,-1,-1],"split_conditions":[1.3020099E0,1.2224848E2,1.5289468E2,1.12287506E2,1.6859418E2,1.2808438E2,1.3254805E2,-1.5355504E-2,8.747437E-3,-7.9258755E-3,2.2363078E-2,-1.7082594E-2,8.27112E-3,-1.472457E-2,2.2325916E-2],"split_indices":[371,401,384,101,398,364,3,0,0,0,0,0,0,0,0],"split_type":[0,0,0,0,0,0,0,0,0,0,0,0,0,0,0],"sum_hessian":[1.01428185E2,3.1722122E1,6.970606E1,5.820454E0,2.5901669E1,5.0289516E1,1.9416546E1,4.2997913E0,1.5206629E0,1.2220316E0,2.4679638E1,4.4280117E1,6.009399E0,5.3804054E0,1.4036141E1],"tree_param":{"num_deleted":"0","num_feature":"408","num_nodes":"15","size_leaf_vector":"1"}},{"base_weights":[8.360867E-2,8.246524E-1,-2.3586902E-1,9.9174446E-1,-9.477671E-3,-5.529944E-1,6.1074984E-1,-7.514415E-3,2.194248E-2,2.022225E-2,-1.5172209E-2,1.800498E-2,-1.3406113E-2],"categories":[],"categories_nodes":[],"categories_segments":[],"categories_sizes":[],"default_left":[0,0,0,0,0,0,0,0,0,0,0,0,0],"id":75,"left_children":[1,3,5,7,-1,9,11,-1,-1,-1,-1,-1,-1],"loss_changes":[2.5625402E1,8.283854E0,2.070226E1,5.4964695E0,0E0,1.9360765E1,9.06427E0,0E0,0E0,0E0,0E0,0E0,0E0],"parents":[2147483647,0,0,1,1,2,2,3,3,5,5,6,6],"right_children":[2,4,6,8,-1,10,12,-1,-1,-1,-1,-1,-1],"split_conditions":[1.3898062E2,1.0320121E2,1.6291066E2,1.4610274E-1,-9.477671E-3,5.371701E-1,1.7435759E2,-7.514415E-3,2.194248E-2,2.022225E-2,-1.5172209E-2,1.800498E-2,-1.3406113E-2],"split_indices":[157,270,363,284,0,93,159,0,0,0,0,0,0],"split_type":[0,0,0,0,0,0,0,0,0,0,0,0,0],"sum_hessian":[1.0335296E2,3.0653427E1,7.269953E1,2.7918516E1,2.7349112E0,5.382286E1,1.887667E1,1.2909428E0,2.6627573E1,5.0605946E0,4.8762268E1,1.6200441E1,2.676231E0],"tree_param":{"num_deleted":"0","num_feature":"408","num_nodes":"13","size_leaf_vector":"1"}},{"base_weights":[8.743703E-3,7.589033E-1,-3.4730056E-1,-7.790061E-2,9.587171E-1,-7.1901804E-1,4.247786E-1,-1.1806898E-2,1.1692712E-2,2.1642117E-2,-5.1977746E-3,1.7429261E-3,-1.8974107E-2,-1.8037736E-2,2.0162124E-2],"categories":[],"categories_nodes":[],"categories_segments":[],"categories_sizes":[],"default_left":[0,0,0,0,0,0,0,0,0,0,0,0,0,0,0],"id":76,"left_children":[1,3,5,7,9,11,13,-1,-1,-1,-1,-1,-1,-1,-1],"loss_changes":[2.7686632E1,6.2013283E0,2.0662592E1,3.3536923E0,5.1422825E0,9.483284E0,1.9949013E1,0E0,0E0,0E0,0E0,0E0,0E0,0E0,0E0],"parents":[2147483647,0,0,1,1,2,2,3,3,4,4,5,5,6,6],"right_children":[2,4,6,8,10,12,14,-1,-1,-1,-1,-1,-1,-1,-1],"split_conditions":[1.4527158E2,7.85962E1,1.5289468E2,1.2013861E2,7.1587086E-1,6.2962794E0,1.1232109E2,-1.1806898E-2,1.1692712E-2,2.1642117E-2,-5.1977746E-3,1.7429261E-3,-1.8974107E-2,-1.8037736E-2,2.0162124E-2],"split_indices":[145,295,384,161,45,379,100,0,0,0,0,0,0,0,0],"split_type":[0,0,0,0,0,0,0,0,0,0,0,0,0,0,0],"sum_hessian":[9.8916145E1,3.1560917E1,6.7355225E1,5.8364162E0,2.57245E1,4.5995667E1,2.1359558E1,3.8393998E0,1.9970167E0,2.3935287E1,1.7892122E0,9.991493E0,3.6004173E1,5.928033E0,1.5431525E1],"tree_param":{"num_deleted":"0","num_feature":"408","num_nodes":"15","size_leaf_vector":"1"}},{"base_weights":[-0E0,-6.03408E-1,4.4575295E-1,5.7689685E-1,-9.003472E-1,-1.9633602E-1,7.786916E-1,-5.873813E-3,1.8901292E-2,-2.107541E-2,-0E0,1.804975E-2,-1.8302938E-2,2.0417297E-2,-5.694548E-3],"categories":[],"categories_nodes":[],"categories_segments":[],"categories_sizes":[],"default_left":[0,0,0,0,0,0,0,0,0,0,0,0,0,0,0],"id":77,"left_children":[1,3,5,7,9,11,13,-1,-1,-1,-1,-1,-1,-1,-1],"loss_changes":[2.8116035E1,1.6764399E1,1.3450957E1,4.02409E0,5.4006443E0,1.8731651E1,1.1382555E1,0E0,0E0,0E0,0E0,0E0,0E0,0E0,0E0],"parents":[2147483647,0,0,1,1,2,2,3,3,4,4,5,5,6,6],"right_children":[2,4,6,8,10,12,14,-1,-1,-1,-1,-1,-1,-1,-1],"split_conditions":[1.1648744E2,1.3882278E2,7.8218544E-1,8.40393E1,1.1098986E2,1.1225133E0,7.8553665E-1,-5.873813E-3,1.8901292E-2,-2.107541E-2,-0E0,1.804975E-2,-1.8302938E-2,2.0417297E-2,-5.694548E-3],"split_indices":[173,349,116,331,389,118,57,0,0,0,0,0,0,0,0],"split_type":[0,0,0,0,0,0,0,0,0,0,0,0,0,0,0],"sum_hessian":[1.0053576E2,4.240742E1,5.8128338E1,7.806774E0,3.4600647E1,1.961624E1,3.85121E1,2.0368485E0,5.7699256E0,2.9582336E1,5.018311E0,7.280349E0,1.2335891E1,3.1816677E1,6.695422E0],"tree_param":{"num_deleted":"0","num_feature":"408","num_nodes":"15","size_leaf_vector":"1"}},{"base_weights":[-7.889892E-3,7.334046E-1,-3.701627E-1,-3.8639712E-1,9.915755E-1,3.0928805E-1,-6.734292E-1,7.5571677E-3,-1.4728286E-2,-4.48889E-3,2.1505177E-2,-1.3016314E-2,2.0597257E-2,-1.6584998E-2,9.043978E-3],"categories":[],"categories_nodes":[],"categories_segments":[],"categories_sizes":[],"default_left":[0,0,0,0,0,0,0,0,0,0,0,0,0,0,0],"id":78,"left_children":[1,3,5,7,9,11,13,-1,-1,-1,-1,-1,-1,-1,-1],"loss_changes":[2.6776993E1,1.0466955E1,1.4580611E1,2.6529613E0,3.6903324E0,1.6613232E1,9.366926E0,0E0,0E0,0E0,0E0,0E0,0E0,0E0,0E0],"parents":[2147483647,0,0,1,1,2,2,3,3,4,4,5,5,6,6],"right_children":[2,4,6,8,10,12,14,-1,-1,-1,-1,-1,-1,-1,-1],"split_conditions":[1.3020099E0,1.1189591E2,8.2195305E1,1.1615628E2,1.4610274E-1,1.7566449E2,9.757863E-1,7.5571677E-3,-1.4728286E-2,-4.48889E-3,2.1505177E-2,-1.3016314E-2,2.0597257E-2,-1.6584998E-2,9.043978E-3],"split_indices":[371,244,330,144,284,398,189,0,0,0,0,0,0,0,0],"split_type":[0,0,0,0,0,0,0,0,0,0,0,0,0,0,0],"sum_hessian":[9.636371E1,3.050805E1,6.585566E1,5.166894E0,2.5341158E1,1.9802006E1,4.6053654E1,1.1243382E0,4.042556E0,1.0303203E0,2.4310837E1,8.275434E0,1.1526571E1,4.1306404E1,4.7472496E0],"tree_param":{"num_deleted":"0","num_feature":"408","num_nodes":"15","size_leaf_vector":"1"}},{"base_weights":[-1.4712609E-4,7.954821E-1,-3.0920687E-1,-7.089117E-3,1.9753069E-2,-5.68595E-1,6.2206E-1,-1.8160056E-2,4.3699014E-4,1.9832382E-2,-1.09064495E-2],"categories":[],"categories_nodes":[],"categories_segments":[],"categories_sizes":[],"default_left":[0,0,0,0,0,0,0,0,0,0,0],"id":79,"left_children":[1,3,5,-1,-1,7,9,-1,-1,-1,-1],"loss_changes":[2.4954443E1,7.2521152E0,1.8617754E1,0E0,0E0,1.241534E1,8.51446E0,0E0,0E0,0E0,0E0],"parents":[2147483647,0,0,1,1,2,2,5,5,6,6],"right_children":[2,4,6,-1,-1,8,10,-1,-1,-1,-1],"split_conditions":[1.2526484E0,1.4364122E2,1.7242093E2,-7.089117E-3,1.9753069E-2,9.782311E-1,9.1700864E-1,-1.8160056E-2,4.3699014E-4,1.9832382E-2,-1.09064495E-2],"split_indices":[143,110,87,0,0,128,81,0,0,0,0],"split_type":[0,0,0,0,0,0,0,0,0,0,0],"sum_hessian":[9.847152E1,2.6216192E1,7.2255325E1,3.1394103E0,2.3076782E1,5.75434E1,1.4711927E1,3.6394024E1,2.1149376E1,1.172847E1,2.9834576E0],"tree_param":{"num_deleted":"0","num_feature":"408","num_nodes":"11","size_leaf_vector":"1"}},{"base_weights":[2.092098E-2,-4.3405062E-1,5.6556153E-1,6.089011E-1,-6.838547E-1,9.408189E-1,-3.8308242E-1,1.6616682E-2,-7.2238427E-3,-1.7634409E-2,1.3121311E-2,-7.159658E-3,2.0916974E-2,-1.5500855E-2,1.0914118E-2],"categories":[],"categories_nodes":[],"categories_segments":[],"categories_sizes":[],"default_left":[0,0,0,0,0,0,0,0,0,0,0,0,0,0,0],"id":80,"left_children":[1,3,5,7,9,11,13,-1,-1,-1,-1,-1,-1,-1,-1],"loss_changes":[2.4610235E1,1.4814047E1,1.7214762E1,3.2060742E0,1.3069643E1,5.675539E0,6.0407124E0,0E0,0E0,0E0,0E0,0E0,0E0,0E0,0E0],"parents":[2147483647,0,0,1,1,2,2,3,3,4,4,5,5,6,6],"right_children":[2,4,6,8,10,12,14,-1,-1,-1,-1,-1,-1,-1,-1],"split_conditions":[1.1826874E2,1.2464987E0,9.3378913E-1,1.170795E2,1.7594315E2,1.3495679E2,1.699352E2,1.6616682E-2,-7.2238427E-3,-1.7634409E-2,1.3121311E-2,-7.159658E-3,2.0916974E-2,-1.5500855E-2,1.0914118E-2],"split_indices":[137,311,93,137,27,362,255,0,0,0,0,0,0,0,0],"split_type":[0,0,0,0,0,0,0,0,0,0,0,0,0,0,0],"sum_hessian":[9.506984E1,5.1520054E1,4.354979E1,9.013091E0,4.250696E1,3.1595173E1,1.1954615E1,7.9881263E0,1.0249645E0,3.7958687E1,4.5482764E0,1.6472974E0,2.9947876E1,9.018217E0,2.9363985E0],"tree_param":{"num_deleted":"0","num_feature":"408","num_nodes":"15","size_leaf_vector":"1"}},{"base_weights":[7.464118E-3,-2.7902395E-1,7.962131E-1,-5.4479015E-1,6.6794145E-1,2.0867875E-2,-9.473927E-3,1.4150251E-2,-1.3440044E-2,1.9645585E-2,-1.1898348E-2],"categories":[],"categories_nodes":[],"categories_segments":[],"categories_sizes":[],"default_left":[0,0,0,0,0,0,0,0,0,0,0],"id":81,"left_children":[1,3,5,7,9,-1,-1,-1,-1,-1,-1],"loss_changes":[2.2881413E1,1.9041765E1,9.790966E0,1.0256989E1,7.9071684E0,0E0,0E0,0E0,0E0,0E0,0E0],"parents":[2147483647,0,0,1,1,2,2,3,3,4,4],"right_children":[2,4,6,8,10,-1,-1,-1,-1,-1,-1],"split_conditions":[1.2422934E2,1.71809E2,7.700866E-1,4.3632862E-1,1.7652133E2,2.0867875E-2,-9.473927E-3,1.4150251E-2,-1.3440044E-2,1.9645585E-2,-1.1898348E-2],"split_indices":[149,87,57,93,63,0,0,0,0,0,0],"split_type":[0,0,0,0,0,0,0,0,0,0,0],"sum_hessian":[9.614918E1,7.101412E1,2.5135056E1,5.6527157E1,1.4486967E1,2.1667978E1,3.4670773E0,4.0088983E0,5.2518257E1,1.2272505E1,2.2144623E0],"tree_param":{"num_deleted":"0","num_feature":"408","num_nodes":"11","size_leaf_vector":"1"}},{"base_weights":[1.9924501E-2,-2.3062074E-1,9.028195E-1,-4.3432075E-1,7.230577E-1,1.0201439E0,-6.631136E-3,-1.3228128E-2,1.0834333E-2,-3.8583246E-3,2.073106E-2,2.2486007E-2,-0E0],"categories":[],"categories_nodes":[],"categories_segments":[],"categories_sizes":[],"default_left":[0,0,0,0,0,0,0,0,0,0,0,0,0],"id":82,"left_children":[1,3,5,7,9,11,-1,-1,-1,-1,-1,-1,-1],"loss_changes":[2.2843863E1,1.581978E1,4.340643E0,1.5567087E1,4.903013E0,1.9527416E0,0E0,0E0,0E0,0E0,0E0,0E0,0E0],"parents":[2147483647,0,0,1,1,2,2,3,3,4,4,5,5],"right_children":[2,4,6,8,10,12,-1,-1,-1,-1,-1,-1,-1],"split_conditions":[1.2695398E2,1.7305196E2,8.665045E-1,4.253569E-1,7.4378044E1,1.4793764E0,-6.631136E-3,-1.3228128E-2,1.0834333E-2,-3.8583246E-3,2.073106E-2,2.2486007E-2,-0E0],"split_indices":[148,231,57,9,102,202,0,0,0,0,0,0,0],"split_type":[0,0,0,0,0,0,0,0,0,0,0,0,0],"sum_hessian":[9.786813E1,7.694436E1,2.0923773E1,6.4731544E1,1.2212816E1,1.9794525E1,1.1292477E0,5.345228E1,1.1279264E1,2.9035447E0,9.309272E0,1.7488264E1,2.3062615E0],"tree_param":{"num_deleted":"0","num_feature":"408","num_nodes":"13","size_leaf_vector":"1"}},{"base_weights":[1.510291E-2,1.987492E-2,-2.1519777E-1,-7.0592684E-1,3.039189E-1,-1.8043319E-2,9.6106E-3,-9.8039415E-3,1.3711355E-2],"categories":[],"categories_nodes":[],"categories_segments":[],"categories_sizes":[],"default_left":[0,0,0,0,0,0,0,0,0],"id":83,"left_children":[1,-1,3,5,7,-1,-1,-1,-1],"loss_changes":[2.321194E1,0E0,2.1434189E1,1.110766E1,1.30710125E1,0E0,0E0,0E0,0E0],"parents":[2147483647,0,0,2,2,3,3,4,4],"right_children":[2,-1,4,6,8,-1,-1,-1,-1],"split_conditions":[1.11911E0,1.987492E-2,1.5665579E2,1.7372995E2,7.720813E-1,-1.8043319E-2,9.6106E-3,-9.8039415E-3,1.3711355E-2],"split_indices":[166,0,228,27,140,0,0,0,0],"split_type":[0,0,0,0,0,0,0,0,0],"sum_hessian":[9.73644E1,1.7698257E1,7.9666145E1,4.107796E1,3.8588184E1,3.6020798E1,5.057164E0,1.1915681E1,2.6672503E1],"tree_param":{"num_deleted":"0","num_feature":"408","num_nodes":"9","size_leaf_vector":"1"}},{"base_weights":[1.0416507E-2,8.931191E-1,-2.2350384E-1,-4.52466E-4,9.8189896E-1,-8.990103E-1,7.581638E-2,-0E0,2.1019645E-2,-2.0607773E-2,4.5658457E-3,-9.18172E-3,1.2213137E-2],"categories":[],"categories_nodes":[],"categories_segments":[],"categories_sizes":[],"default_left":[0,0,0,0,0,0,0,0,0,0,0,0,0],"id":84,"left_children":[1,3,5,-1,7,9,11,-1,-1,-1,-1,-1,-1],"loss_changes":[2.1061365E1,2.269682E0,1.6515984E1,0E0,1.5572147E0,4.561878E0,1.667366E1,0E0,0E0,0E0,0E0,0E0,0E0],"parents":[2147483647,0,0,1,1,2,2,4,4,5,5,6,6],"right_children":[2,4,6,-1,8,10,12,-1,-1,-1,-1,-1,-1],"split_conditions":[1.1965017E2,9.9561264E1,7.5021553E-1,-4.52466E-4,2.1404964E-1,